svm_type c_svc
kernel_type rbf
gamma 0.5
nr_class 2
total_sv 174
rho 2.35989
label 1 -1
nr_sv 85 89
SV
5 1:1.676246 2:0.73193 
5 1:7.543169 2:0.055551 
5 1:6.853392 2:-0.124845 
5 1:-2.573197 2:-0.747494 
5 1:-2.819703 2:-0.697077 
5 1:-6.434314 2:-0.280918 
5 1:-3.127355 2:0.608158 
5 1:-8.072302 2:0.097792 
5 1:5.240988 2:-0.241166 
3.250171809240161 1:-3.177664 2:0.589212 
5 1:-2.549816 2:0.664938 
2.872031216170684 1:1.143937 2:0.631783 
5 1:3.789123 2:-0.576266 
1.024101035577112 1:2.118636 2:-0.617256 
5 1:7.271123 2:-0.236542 
3.672169950994203 1:-3.626385 2:-0.366675 
5 1:-2.275237 2:0.714059 
5 1:7.205556 2:0.028873 
5 1:1.696809 2:0.731984 
5 1:-7.550756 2:0.178602 
5 1:4.120255 2:-0.449929 
5 1:8.554327 2:-0.056748 
5 1:3.091598 2:-0.59583 
5 1:-6.349945 2:0.307786 
5 1:1.51073 2:-0.740563 
4.216113541712327 1:5.918327 2:0.211219 
5 1:-5.877406 2:0.208289 
5 1:-6.950411 2:0.307226 
3.263317618678655 1:3.801153 2:-0.445538 
5 1:3.841117 2:-0.487647 
5 1:-9.997546 2:-0.031873 
5 1:-7.322926 2:0.080268 
5 1:5.453388 2:-0.382127 
0.4693604456611916 1:-0.465481 2:0.852466 
1.956274367171361 1:0.032255 2:0.951965 
5 1:5.798545 2:-0.405743 
5 1:-8.108349 2:0.1146 
5 1:-1.870735 2:0.762258 
5 1:-5.161537 2:-0.288417 
5 1:3.004957 2:0.574727 
5 1:5.587144 2:0.256621 
5 1:-6.892962 2:0.165815 
5 1:5.762472 2:0.330832 
5 1:7.106698 2:0.041861 
5 1:-1.210914 2:0.843078 
5 1:3.16002 2:0.645921 
5 1:7.131431 2:0.241113 
5 1:0.568185 2:0.950644 
5 1:-4.205574 2:0.541432 
5 1:-7.308386 2:0.164039 
5 1:-7.358084 2:-0.175672 
2.658165838741374 1:-1.225164 2:0.63269 
5 1:8.274021 2:0.038581 
5 1:-2.332216 2:-0.711237 
5 1:5.110475 2:-0.293503 
5 1:-7.888731 2:-0.131678 
5 1:-1.256346 2:0.737386 
5 1:-6.049997 2:0.239324 
2.513434940823398 1:0.114769 2:-0.727815 
5 1:0.764575 2:-0.873828 
5 1:-4.867095 2:0.474853 
5 1:-4.859324 2:-0.424769 
5 1:3.411689 2:0.562746 
5 1:-6.385717 2:-0.334373 
4.079894818516598 1:-5.993626 2:-0.257763 
5 1:-8.065092 2:-0.000557 
5 1:10.026953 2:-0.013266 
3.433179980452422 1:1.658453 2:-0.656447 
5 1:1.576057 2:0.71005 
2.95065018046862 1:-2.984195 2:-0.519939 
5 1:5.983939 2:0.217243 
5 1:3.192388 2:-0.636313 
5 1:-9.053598 2:0.046954 
5 1:-6.802396 2:-0.176073 
2.980046574867671 1:-1.384821 2:-0.745277 
5 1:-1.533906 2:-0.785996 
2.787871521471859 1:-7.037757 2:0.092284 
5 1:4.752892 2:0.265627 
5 1:-7.328076 2:0.033693 
5 1:-1.444576 2:-0.773272 
5 1:6.938312 2:0.020972 
5 1:4.816379 2:-0.449046 
5 1:-4.177401 2:0.552781 
5 1:-1.533917 2:-0.811042 
5 1:-4.593421 2:-0.498013 
-3.923710952233903 1:1.254967 2:0.97336 
-5 1:5.533596 2:-0.598949 
-5 1:-7.346521 2:0.349395 
-5 1:0.933354 2:0.992065 
-5 1:-4.941234 2:0.491513 
-5 1:1.515955 2:0.866146 
-5 1:4.42688 2:-0.572505 
-5 1:-1.427712 2:-0.866926 
-5 1:-6.865594 2:0.51033 
-5 1:-2.555616 2:-0.79158 
-5 1:5.412909 2:0.543303 
-5 1:4.018182 2:-0.589484 
-3.437084096328517 1:-6.43858 2:0.549997 
-0.7631177568681422 1:4.538666 2:-0.663004 
-5 1:1.886807 2:-0.837822 
-5 1:-2.564016 2:0.741687 
-4.365257469599076 1:-5.86916 2:-0.68537 
-5 1:2.873969 2:-0.854671 
-5 1:-0.969163 2:0.948203 
-5 1:7.724484 2:0.346626 
-5 1:-0.844878 2:-0.953551 
-5 1:5.298779 2:0.555072 
-2.085130202200135 1:3.383566 2:-0.853826 
-0.803540421836513 1:-9.553725 2:-0.30752 
-5 1:7.029743 2:-0.496217 
-2.335522110374148 1:-3.774542 2:-0.712011 
-4.78789074006415 1:7.020608 2:0.563971 
-5 1:-3.461167 2:0.836149 
-5 1:5.343131 2:-0.497789 
-5 1:-6.486154 2:0.46197 
-5 1:1.489682 2:-0.98695 
-5 1:5.605283 2:-0.583208 
-5 1:2.917826 2:0.840322 
-5 1:-5.283478 2:-0.506 
-5 1:-7.384477 2:-0.470536 
-5 1:-3.93521 2:-0.655321 
-5 1:7.172917 2:0.45686 
-5 1:-5.458866 2:0.495615 
-5 1:-3.797786 2:0.681915 
-5 1:7.558608 2:0.335295 
-5 1:6.266809 2:0.459211 
-0.7046351730967682 1:7.910043 2:0.357699 
-1.905664243039606 1:-8.534501 2:0.21834 
-5 1:-7.959536 2:-0.333473 
-5 1:-1.733632 2:-0.868471 
-5 1:0.655533 2:-0.958951 
-3.887855935945184 1:5.654203 2:-0.632241 
-5 1:-6.967255 2:-0.359098 
-5 1:6.124258 2:0.570597 
-5 1:7.168795 2:-0.401681 
-4.936631202681316 1:4.975115 2:0.556392 
-1.117565258358565 1:6.977739 2:-0.622375 
-5 1:3.64688 2:-0.696155 
-2.195538923407373 1:9.817272 2:0.138757 
-2.36270362879023 1:4.579258 2:0.609496 
-3.895872159079519 1:-2.343802 2:0.967647 
-5 1:2.985323 2:0.844645 
-5 1:-5.935118 2:-0.647807 
-2.163408019431767 1:9.74417 2:-0.067623 
-5 1:-7.255199 2:-0.399362 
-5 1:4.006299 2:-0.698721 
-5 1:-6.757004 2:0.475475 
-5 1:-8.29784 2:0.273411 
-2.926973854743987 1:2.169498 2:0.838963 
-5 1:3.401021 2:0.789374 
-5 1:-2.395291 2:-0.780778 
-0.9655242820590313 1:-9.908113 2:0.134889 
-5 1:-1.487397 2:0.916875 
-4.690315914912375 1:7.648159 2:-0.530693 
-5 1:-5.602266 2:0.571716 
-5 1:-1.543193 2:0.91454 
-4.986966348916908 1:8.556784 2:-0.183414 
-5 1:-7.409001 2:-0.463378 
-5 1:1.424291 2:0.878521 
-5 1:-8.243688 2:0.289613 
-5 1:6.198926 2:-0.389907 
-5 1:-2.672924 2:-0.889116 
-5 1:-6.550685 2:-0.400137 
-3.516054985171596 1:-9.969444 2:-0.131448 
-5 1:-2.078255 2:-0.870701 
-5 1:-1.661853 2:0.855574 
-3.15867649455665 1:-7.334111 2:-0.480217 
-1.21114366685218 1:-4.655244 2:-0.689903 
-5 1:-4.46931 2:-0.650846 
-5 1:-6.999247 2:0.534575 
-5 1:-8.352282 2:0.209329 
-5 1:-7.344103 2:0.384071 
-5 1:-3.578334 2:0.883131 
-5 1:3.858623 2:-0.638984 
