svm_type c_svc
kernel_type rbf
gamma 0.5
nr_class 2
total_sv 34
rho -0.154391
label -1 1
probA -2.11149
probB 0.447122
nr_sv 19 15
SV
0.9565249147219688 1:-7.727905 2:-0.384403 
0.2947897551764583 1:-1.693569 2:-0.724698 
0.8464944298005453 1:8.869004 2:-0.343454 
1 1:7.263065 2:-0.239257 
0.2775704241161456 1:1.238391 2:-0.757743 
1 1:-4.2467 2:0.057275 
1 1:7.229273 2:-0.632374 
0.5224922135662817 1:-2.509012 2:-0.520105 
1 1:0.755912 2:-0.225401 
0.1916241645978326 1:-9.992536 2:-0.522414 
1 1:-9.495737 2:-0.027652 
0.9197275044687941 1:0.84823 2:-0.356873 
0.1338556774933132 1:-0.699247 2:-0.733574 
1 1:9.100554 2:-0.297695 
0.03335591319483762 1:-9.118529 2:-0.454069 
1 1:-6.245038 2:-0.472838 
1 1:-1.417224 2:-0.322209 
0.8474153065161201 1:6.24481 2:-0.703489 
0.968234119478032 1:-3.93666 2:-0.047634 
-1 1:-6.202481 2:0.580145 
-0.9799758332902441 1:-5.391438 2:0.591225 
-0.927138835594595 1:7.559267 2:0.385052 
-1 1:7.213038 2:0.198066 
-1 1:-4.405302 2:0.414567 
-1 1:8.380911 2:0.210671 
-0.9903401752311151 1:3.491775 2:0.275496 
-0.09462957901437496 1:6.276548 2:1.063988 
-1 1:10.545063 2:0.394088 
-1 1:6.588944 2:0.4987 
-1 1:-0.926625 2:0.220477 
-1 1:-2.220649 2:0.406389 
-1 1:1.406911 2:0.550811 
-1 1:1.408517 2:0.377613 
-1 1:-8.633542 2:0.546162 
