svm_type c_svc
kernel_type linear
nr_class 2
total_sv 15
rho -0.307255
label -1 1
nr_sv 7 8
SV
1 1:8.869004 2:-0.343454 
1 1:7.263065 2:-0.239257 
1 1:-4.2467 2:0.057275 
0.9257956518167346 1:0.755912 2:-0.225401 
1 1:-9.495737 2:-0.027652 
1 1:9.100554 2:-0.297695 
1 1:-3.93666 2:-0.047634 
-1 1:7.213038 2:0.198066 
-1 1:-4.405302 2:0.414567 
-1 1:8.380911 2:0.210671 
-1 1:3.491775 2:0.275496 
-1 1:-0.926625 2:0.220477 
-1 1:-2.220649 2:0.406389 
-0.4747814135299018 1:1.408517 2:0.377613 
-0.4510142382868325 1:-8.633542 2:0.546162 
