solver_type L2R_L2LOSS_SVC_DUAL
nr_class 2
label 1 -1
nr_feature 104115
bias -1
w
0.09034536458084141 
-10.09755567767053 
0 
0 
-2.602085213965211e-18 
0 
2.667137344314341e-17 
0.8176185293770404 
0 
0 
0 
0 
0 
0 
0 
0 
0 
0 
0 
0 
0 
0 
-0.495512624105554 
0 
0 
0.3196294687155514 
-0.8191804075099317 
-0.7256788521110912 
-0.7270395911696571 
-0.7454134180825334 
-0.7273530115615129 
-0.7267426614546678 
-0.724433009496448 
-0.7269758865416569 
-0.7265486986192518 
-0.1942699826136251 
-0.7268608927518071 
-0.7270992597075365 
-0.7266086796866082 
0 
-0.7269950019016254 
-0.7268416490529324 
-0.7267314477368636 
-0.7270750592424405 
-0.7266551656420062 
-0.7609740970573514 
-0.7268007047287444 
-0.7269299051444373 
0.176401518252891 
1.734723475976807e-18 
0.6088045502642049 
0.6302177126608723 
0.606354002037277 
0.5801640702676637 
0.6067406325341013 
0 
0.6059076050422725 
0.5954874629036293 
0.6067106790492823 
0.6064761796371283 
0.6018076108619713 
0.6065227199969174 
0.606286655586862 
0.6068301378914552 
0.6065218163939581 
0.6067642479737985 
0.1259402963486643 
0.6062055222893394 
0.5857352718414128 
0.6066828193780502 
0.6323405929157103 
0.6064763996527622 
0.03369597678768545 
0.6066269633020154 
0.3124717576331935 
0 
0.6063765514162975 
0.7277114953349314 
0.7270376783045855 
0 
0.6067031214937051 
0.6823446019979064 
0.6064591110470333 
0.6063501228490876 
0.6063613965556123 
0.1401356148371025 
0.6068790064106812 
0.6065275802785415 
0.6064719604746339 
0.6061664369700231 
0.6065676374951969 
0.6062246639578446 
0.6062463374382928 
0.6068624891955148 
0.7695269158891442 
0.6338389892311294 
0.6061911021828407 
0.185535145860216 
0.7834086567503237 
0.6039745333751718 
0.6067774644323981 
0.6066097970830194 
0.7275365165790918 
0.6071213977706771 
0.5678491302291399 
0.6076835928420939 
0.606560739977376 
0.6051877563982477 
0.6061940323393314 
0.6388536727756647 
0.6063916073792281 
0.7278199889362604 
0.5436497878921552 
0.7815323894997537 
0.6067432744500907 
0.606122180124709 
0.6592014801849853 
0.6064585050844681 
0.6069337426915005 
0.808771014439855 
0.6063081249367761 
0.6066262801283226 
0.6069677168545198 
0.6065157918786487 
0.7375442525108389 
0.04950145866336153 
0.8954226963600251 
0.9078336232530669 
0.808301927332136 
0.6051181275640966 
0.8955395829364967 
0.8254343939323594 
0.8541269456471622 
0.6928080751037626 
0.8558496760890419 
1.182703517442145 
0.7815447168001721 
0.8701953834871595 
1.126048286969428 
0.5056833114826594 
0.8195732821631612 
0.9002060205920889 
0.9014141297073555 
0.7737263463836153 
0.606508555474554 
0.8472527736149862 
0.6690489614139661 
0.6432992839972798 
0.5994619604792126 
0.8963875476225368 
0.8617649000082368 
0.8639552623230914 
0.5015851334986694 
0.8724974213222265 
0.648734315634186 
0.6854041777691898 
0.6067180910140632 
0 
0.6064365751020397 
0.6061141786586669 
0.6064189181590748 
0.6065548924306415 
0.6066236433739882 
0 
0 
0.6064299707188234 
0.6065058202509486 
0.6063985872789293 
0.6066027576262855 
0.6067955626990258 
0.6064755976048367 
0.6064160115328687 
0.6063407897548553 
0 
0.6063589719237592 
0.8787548990160698 
0.6063420058372526 
0.6026345515030634 
0.7802554051796369 
0.6064267238869232 
0.006507607638016673 
0 
0.7218695703531379 
0.6067674179867424 
0.1529303390307453 
0.6069925120196235 
0.622985535436553 
0.8085832921925418 
0.606965234188551 
0.3813746363992348 
0.6065825467683057 
0.637545013843847 
0.4726493426977516 
0.1790392456271216 
0.5821873459188937 
0.6000889889319044 
0.612250055211029 
0.6751065647342273 
0.8498217866169602 
0.6720743508551764 
0.9521893902464938 
0.5871645947102496 
0.7040584625406699 
0.6374439965409492 
0.419241811272048 
0.2413345782548937 
0.4070739782399813 
0.7140627614034646 
0.7621682374367906 
0.3856497693654241 
0.5322597089367477 
0.4260365398470872 
0.6537646370821705 
0.2957551748547499 
-0.03990040751221968 
0.5995473885718938 
0.5861601590513789 
0.6519787230290895 
0.9518130960878072 
0.8972283433614431 
0.3687603455891045 
0.6923527643293867 
0.8305156426249118 
0.6670129292284545 
0.6851001104663716 
0.6290458258163566 
0.6068297619478447 
0.7119165873152625 
0.6068107591327034 
0.858473211824721 
0.299008718557309 
0.3253870045447649 
0.5498972044550714 
0.6562434608315626 
0.4314128238052496 
0.579143006027269 
0.6033902158223808 
0.4659279920267054 
0.6615066431098965 
0.5894861271471843 
0.8024817315529357 
0.2638221715452934 
0.5675404784930608 
0.7277724749426161 
0.6064936220849062 
0.9466611799991218 
0.727611729385524 
1.004655780870439 
0.56697578053595 
1.005427692421711 
0.6063190898803357 
0.6086304031180536 
0.5871052593525751 
0.606499350365904 
-0.1179648060643105 
0.7847497159996508 
0.6066937743018574 
0.5178096931589085 
0.6055834232688491 
0.5951925248913278 
0 
0.7677183013798738 
0 
0.5533970067661608 
0.3510539171988153 
0.6150989964661605 
0.8670620939228699 
0.6065970764363398 
0.4348875164354733 
0.5930093518150044 
0.4122189886899913 
0.606619297799164 
0.7894464355902697 
0.6412173581723165 
0.6067345225802152 
0.5604962184877633 
0.2468853257757709 
0.5670110738355657 
0.7332449795308604 
0.4696786122488788 
0.6064800781052325 
0.8840311415574328 
0.8316624321632275 
0.7776534481566544 
0.5806438007790871 
0.6565642500066432 
0.5757104714112351 
0.345199679392543 
0.8636806970996949 
0.6078849407373539 
0 
0.5807586944336439 
0.4678803914215577 
0.6488731361342588 
0.6216239052073328 
0.7507187615636796 
0.645348462235523 
0.6730197011589429 
0.4292897247285332 
0.5862368531895936 
0.5880664103091919 
0.3846620003574978 
0.6050163467542725 
0.6386987913904439 
0.3830823705768551 
0.4794191916558604 
0.669320683986241 
0.5586574569146601 
0.8729431376720961 
0.8443811925100337 
0.6060248516292207 
0.9337784769720776 
0.2521441890438111 
0.6612508221579668 
0.6062506584637508 
-0.0114937828777537 
0.5664662362679291 
0.521769443173232 
0.593088151406963 
0.6330125097337856 
0.6064028697828406 
0.6478737698733208 
0.5763613679695945 
0.2614087454794734 
0.7281938357638519 
0.6071813433227407 
0.6078001548380059 
0.8438099558465022 
0.6058843076268836 
0.5521833925978333 
0.72537160848226 
0.7581013362855931 
0.6063316966879653 
0.1911985842126767 
0.4430377049056393 
0.6065516553859885 
0.4196974850743651 
0.6712243124440622 
0 
0.6408219900225856 
0.6157936099197945 
0.6065531707996596 
0.6078134682808591 
0 
0.6070428470239313 
0.6068806401969694 
0.6034954934077761 
0.6037415275494131 
0.6066498833694833 
0 
0.6257381408758752 
0.6064741030039553 
0.6645515691777435 
0.6184702476634656 
0.6062685393180011 
0.5836790189597494 
0.6055789987536889 
0.6312759019974646 
0.5955212903355299 
0.6070898218389473 
0.606835343140582 
0.6066096903090845 
0.6055034828152244 
0.6065728628345284 
0.6065101723243436 
0.598844573510933 
0.5764367870326786 
0.6065358164156048 
0.8064020252495485 
0.6065819293146297 
0.6065606642387734 
0.606459331583272 
0.6067254827544283 
0.6066014934143954 
0.6068208470324357 
0.6065571163560356 
0.6068969492998988 
0.6029433692026323 
0.6003343145048701 
0.6064445183229226 
0.6067209576572108 
0.6066176129609588 
0.606014851515061 
0.6067623556069506 
0.6070586688224084 
-0.6818793340074838 
0.2479136258778003 
-0.07769027320396102 
0.04835023941986615 
0.2222460792698918 
-0.1430388744955486 
-1.073361461339728 
-0.2183602494326998 
0.4776911821915191 
-0.6551739258166368 
-0.5631596613997167 
-0.6194049824914349 
0 
-0.6753980301528094 
-0.3571346953778631 
-0.0802828031023389 
-0.3845898757663612 
-0.03763987726499024 
0.1098030495789551 
0.06909415578140921 
0.01477947950663997 
-0.04282618105417466 
0.09068691133761408 
0.1975470980026284 
-0.0397325969530096 
-0.4951278389033714 
0.0760853428318267 
0.04158627669479933 
0.01058026568133361 
-0.3104709601204654 
0.09512275165706957 
-0.2696464730056474 
0.2343168760120527 
-0.04358765009058903 
-0.1158612808613623 
0.04857222883741812 
0.08946570290540666 
0.2450537889988011 
0.0533866769542535 
-0.4643033739574746 
0.4552745858852819 
-0.4643033739574737 
0.002221813562371724 
0.0002233187784868494 
0.1484508597151246 
0.05983466564517509 
0.0452104120527896 
0.03557851473671828 
0.2619178160330354 
0.1161186628821451 
-0.3806664777950281 
-0.169676497119606 
-0.3335527828718606 
0.3061314781724961 
0.374678571440448 
-0.0267432733830505 
0.3261486219309909 
0.2138620583821585 
-0.0564257287008916 
0.2559143465916473 
0.05140789309747662 
-0.2085321040029971 
-0.09462189750735538 
-0.02928041933270627 
-0.3058529347998374 
-0.1786865023785998 
0.2169749428286272 
-0.267704739882046 
0.2816883532016511 
-0.1793887050281164 
0.1397614763155167 
-0.8410481560126384 
0.2301407091490744 
-0.1647041804398504 
0.312594500192219 
0.1445671776425504 
0.01192549505983087 
-0.484648331253872 
0.1705278643600667 
-0.3591475039573063 
-0.1052061580086362 
0.06704983521854956 
-0.01664289246549864 
0.1876041499709105 
0.01774930634801522 
0 
0 
0 
0 
0 
0 
0 
0 
0 
0 
0 
0 
0 
0 
0 
-0.4417554952008538 
0 
-0.137730991310263 
0 
0.001375147633777063 
0 
-1.21517427219428 
-0.7099274765403287 
-0.1993043506008488 
-0.1992925589793885 
0.096425483038767 
0.1230272228180231 
-0.3346318684110086 
0.2316126490276828 
0.3205203479180023 
0.01879716634278721 
-0.27443456740156 
-0.4539447316829268 
0.01291642766730438 
-0.04308295706237723 
-0.1108294481850132 
-0.3543475090263815 
0.000676572366253783 
-0.05074470975808501 
-0.05347498467366341 
0.08230414624119418 
-0.004648198390482907 
0.06073312889449794 
-0.1733610321024383 
0.1892349069715233 
-0.1001655669446497 
-0.2357780807714266 
-0.04731546945645936 
0.07273300024691649 
-0.128237762438288 
0.1920322162698225 
0.09774149522255289 
0 
0.1202486299482205 
0.2159891262821265 
-0.5820615399869381 
0.4392563997614116 
0 
-0.02209858812837143 
-0.1284758497937039 
-0.01550536356293902 
0.0476715807505841 
0.1266732752423265 
0 
0.2739669738432889 
-0.1167196370368671 
0.2000608102077621 
0.4289768991385851 
0.05823111026216121 
-0.0003558042728223284 
-0.2904981897567177 
0.06896107466218117 
0.288219578420951 
0 
0.5048895906469707 
-0.2538458794072927 
-0.001020828768368942 
0.08534119567514284 
0.3536473754222549 
0.2435332398314803 
-0.1777238846461027 
-0.02426005060533382 
0.6405294477056693 
0.03085766174745616 
0 
0 
-0.008368161489165332 
0.06406507640691048 
-0.2029356595346659 
0.5139278451509135 
0.07371893800653513 
-0.1691139033020624 
0.07630647692544694 
0.2763227253682949 
0.603638204092382 
-0.1070882961647882 
0.0992326209774515 
-0.1805181024930355 
0.01983873011904279 
-0.3579628010630094 
0.2096344363774094 
-0.147331238298912 
0.1736265234774788 
0.05397673185545959 
-0.1908388002441982 
-0.1084515957147532 
0.694739923380912 
0.2868101039761325 
-0.3704348732222632 
-0.3907030746346036 
-0.07846611917980664 
-0.3316832464261003 
-0.1896095603026147 
0.02477729410546384 
0.2831536955326217 
-0.1190994749090779 
-0.07369000033909674 
0.06053750839952089 
0.07520089625938661 
0.06226342941212691 
0.1133674147797821 
-0.1130087439661919 
0.06999039981577322 
-0.04179588975975938 
0.4828738167255238 
0.1317513849966888 
-0.1436296201248857 
-0.09141577760060353 
-0.4068823937489745 
0.1121433953986944 
0.1035897970642749 
-0.2263070986973626 
-0.5590081151819499 
0.05007451363076119 
0.1493256857600142 
0.09033925435191636 
0.2645431561278225 
-0.5753560676770443 
0.1342277112157446 
-0.03365443301237747 
0.06702528180585723 
-0.06070939190469785 
0.01049595332408283 
0.02509717782962575 
0.07134735748845569 
0.001484653039056527 
0.02365817988875465 
-0.1420860340812366 
0.2167495400975828 
-0.195312682359065 
-0.05018393318014705 
-0.1097551950084801 
-0.09555710951683195 
0.003703812411306615 
-0.138368842844148 
0.2221142687832162 
0.2565640397803269 
-0.1916322617527819 
0.2409219911963904 
-0.2708338696995213 
-0.03798650233140702 
0.2425439224517186 
-0.1736089672997626 
-0.07071839496287362 
0.156391648079018 
-0.04852807038530811 
0.04336304582758417 
-0.4220884520187581 
0.5019541323262043 
-0.1331249234602661 
-0.234224899227312 
-0.07603431093873869 
-0.07566258984561504 
6.938893903907228e-18 
-0.107678271430783 
0.2686151974117922 
0.4128085041305306 
-0.0298200010774823 
0.02415000768366122 
-0.365141701115601 
0.3217661284458421 
0.09361941518143113 
-0.2690770652012288 
0.1887023214796163 
0.3287042952438962 
-0.0253381556662081 
0.4044708085859902 
-0.0204089912250464 
-0.5790606278207521 
0.01267971692457148 
0.2765054131951428 
-0.2143379877448124 
-0.03078023460564879 
-0.1565591567134219 
0 
-0.007129902796192223 
-0.527764261031149 
0.4108542676021871 
-0.08384880340732173 
0.1919097230767991 
-0.2126512547919074 
0 
0.05523364983127587 
0.1393897100161618 
-0.1668066023670517 
-0.4956771071063432 
-0.3113967738347723 
-0.1264860314465185 
0.3001313084847396 
-0.07930024354879522 
-0.03710789777955852 
-0.0229419864767211 
-0.2551955909019418 
-0.2319887064696968 
0.1308349684792178 
-0.2904541894058753 
-0.01339753112079245 
-0.6746788638499782 
0 
-0.1577737338640786 
-0.06996733878467962 
0.4181580788568452 
-1.084202172485504e-19 
-0.01787505076433791 
-0.2338796346907047 
0 
0 
0 
0 
0 
-0.01056093927739997 
0 
0 
-0.02387265642293257 
0.1805325638571096 
0 
0.450304781658733 
-0.0560063508324571 
-0.02844910780258412 
-0.1184048293690779 
-0.08001744525660683 
-0.09871510204411475 
-0.02187873416546951 
-0.08346263484937778 
-0.4853167409383087 
-1.788933584601082e-18 
0.4251445593818189 
0 
-0.007363115465082644 
-0.4748370799788496 
-0.2196866387295348 
-0.2196866387295347 
-0.09178621842884249 
-1.077973063107579 
-0.2196866387295347 
-0.2196866387295345 
-0.162143980547085 
-0.2527281103764926 
-0.2196866387295347 
-0.2196866387295347 
-0.219686638729535 
-0.2196866387295347 
-0.2266223853910045 
0 
-0.3721583551931912 
-0.2196866387295347 
-0.5527454563908563 
0 
-0.01223646556475093 
0.07057009927936179 
0.1293754002888314 
1.734723475976807e-18 
0.3561951210842133 
-2.137413646608068e-05 
-0.001020828768368939 
0.2891632173039426 
0 
0.003445336458283606 
-0.2507633710545661 
-0.01056093927739994 
-0.3245323508863577 
-0.4605520499463713 
-0.09844572547667113 
-0.008668445570705426 
-0.5069349439948756 
-0.1333019300687977 
-0.02768423623449697 
0 
0.08879319886582777 
-0.02187873416546952 
-0.07852809688904033 
-0.08640703823680727 
0 
0 
0 
0 
-0.119194587527335 
-0.0347820775658086 
0 
0.2991698266588653 
0.1143446203983006 
-0.3878059695086451 
-0.4653460531092057 
0 
-0.4455531323627708 
-0.2791101671777041 
0.05623816444486323 
-0.1982109710484747 
-0.001020828768368939 
0.2500650187418088 
0.2662014200609544 
0.1853607593986984 
-0.2214228168364046 
0.4069738526968794 
0.4400054149357451 
0.03345213129845905 
0.2638855929564866 
0 
0.1975235344229983 
-0.01330934168858639 
0 
-0.3665184029718416 
0 
-0.3930884661350783 
0.2558158839866452 
-0.4972388995757414 
-0.0324453478833194 
-0.07143816909644714 
-0.001017300093406095 
1.626303258728257e-19 
-0.08877436824598105 
0 
0 
0 
-0.3500181591402525 
-0.03824636719469915 
-0.1144732380831472 
-0.02796920771347649 
0.2704729472160188 
0 
-0.04783905183647717 
0.4743311615458532 
0.2933665952968541 
-0.004483285517908639 
-0.1184057220709257 
0.5656762102786981 
-0.1073604871554435 
0.008899370824091694 
-0.002119142593860728 
0.5028596513188093 
0.09418060076253293 
0.4216805816938914 
0.1441718661344478 
0.1474338990110171 
-0.05819398554998952 
0.1932909846207472 
1.355252715606881e-20 
-0.2314495756292057 
-0.09445736504677753 
0.03550232507148308 
0.01857449189335727 
0.5481415862278618 
-0.004469331952301659 
0.3810671835943028 
0.2614335597860891 
5.421010862427522e-20 
-0.3066511681852399 
0.04027925350408335 
0.156395754909078 
-0.0843879026959346 
3.035766082959412e-18 
0 
0.02279391683290331 
-0.4293948571673019 
-0.001005629766118516 
-0.2875595058762434 
-0.09969356039376326 
-0.008785010570220539 
0.343423841731053 
-0.007342572653979888 
0.3749346728963679 
0.3424619816482287 
0.4566475076203509 
0.5368106320433186 
-0.4969124658408341 
0.1305916677755818 
-0.0152045199352153 
-0.2829072370242618 
0.5219872237494858 
0.2282249199056798 
-0.07323244915232564 
0.1780849902107628 
0.1117306436005841 
1.084202172485504e-19 
0.02031200313764057 
-0.1016164582800713 
0 
-0.2485103162795387 
0.126261558303331 
-0.2432001485740077 
0.1148706999115018 
0.3071380924684886 
-0.1366295515063045 
-0.06694042727182919 
-0.03278276448812519 
-0.4680519100413187 
-0.03990505988450478 
0.1379772602972521 
0.05852654007682404 
-0.0551072050684091 
0.0674399926170984 
-0.03018551793081439 
0.02928757169202581 
-0.07437301153046774 
0.1298075701602705 
-0.09121881680081424 
1.084202172485504e-19 
0.1081936610891795 
-0.0557240296965294 
0.2444672939524102 
0 
0 
0.3453242549831045 
-0.01028925708900619 
0 
0.04128590794669075 
-0.2188227046273117 
-1.475761444466102 
-0.4784226155582604 
0 
0.2243432992809004 
0.7118583562769049 
0.03008344871463797 
0.3206807139643648 
0.03618088744020877 
-0.175147076449588 
3.577867169202165e-18 
0 
-0.1848016053450199 
0 
-0.1277252039456765 
0.1322064295829192 
0 
-0.08291787070329594 
-0.1736409978756626 
0.2293036008139394 
0 
-0.01430422860014102 
0.1107380628034711 
-0.08067831543576308 
-0.3336637963590323 
-0.06099139915097812 
-0.1014062518867148 
0 
0.2450749685267081 
0.2618195294152592 
-0.03609026182875801 
0.4922818057102136 
0.2362446511348881 
0.1319127096479904 
0.06166779515117012 
0.01301799450742768 
-0.02742461872596118 
0.1490983200604515 
4.336808689942018e-19 
0.1230966165569355 
-0.001350593184402879 
-0.0265824424647566 
0.1402648128974306 
-0.09430622982282991 
0 
-0.1558563234899731 
0.6361292875509903 
0.2787128232248434 
0.5599031644054075 
0.4371230838882096 
-0.2143757970378054 
-0.03551235640990574 
-0.002339009404590345 
-0.0008585470292579557 
0.3946842564199037 
0.4391964650738921 
0.03113428430566181 
-0.06604472970650242 
0.07673617864694497 
0.1178780225075455 
0.2415656171584187 
0 
0 
0.05261670392970298 
0.6408200673786186 
-0.008668445570705377 
-0.07619502991785433 
-0.0258499168884917 
2.168404344971009e-19 
0.06356317695613117 
-0.1093355712111248 
0.379273673258045 
0.1325683961872883 
0.4530475452388917 
0 
0.1995512311198632 
0.3141361376649631 
-0.006722840785441524 
0.09046728943363015 
-0.01929085291769603 
-0.03009806001298088 
-0.1636941742847503 
0.01501342766795723 
0.1471560224027261 
-0.04441872409881195 
0 
-0.2727379185317497 
0.825515534295847 
0.338405061247145 
0.09520451824873703 
-0.007810228156573107 
0.1658796736357732 
-0.03034145651244488 
0.01830500082103121 
-0.0152045199352153 
0.3977664482605393 
-0.03988966539362862 
0.2220714214978159 
0.0010891960294894 
-0.006739688104906723 
-0.006722840785441524 
-0.03732418975309947 
0.1408304294968055 
-0.01355721506411281 
0.2209718045721504 
0.2901236525379919 
-0.1784214497945119 
0.1928558663416403 
0.06117884920578247 
0.1635628559439932 
-0.1254671136747516 
0.1905405356962458 
0.2085647712608469 
-0.03539426979254616 
-0.2817499537696775 
0.002650133894197166 
-0.4723176249320559 
0.1090208103358706 
0 
0.06692310255018991 
-0.2598080273395616 
0 
-0.006357427781582188 
0.2597461939861412 
-0.4821299428013229 
0.01778995788148482 
0.06410788304715356 
1.084202172485504e-19 
-0.1281009332762651 
0.352450177415351 
0.3488633496116472 
-0.02684862731765672 
0.2103372225829117 
0.2171568819163501 
-0.1020210369957861 
-0.07044654322806225 
0 
0 
0 
0.4855634992035442 
0.0263586208578404 
0.08817430489000223 
-0.5607694499705901 
0 
-0.1790000067103112 
0.02072984769005404 
0.1498370702340812 
0.1710590727379428 
0.005859474263455196 
-0.2040112189012021 
-0.02098987907068936 
0.1173618840368008 
-0.2459532009471394 
0 
-0.02656205360364266 
0.1595037114407109 
0.5482560659554981 
-0.01434986595111138 
0.04556069855334784 
0.08026459888959549 
0.5834541433936806 
0 
0 
0 
0 
-1.168951398200797 
0.05511747966537042 
-0.03557250305064229 
0.01479014722082985 
-0.2639075311993997 
0.3878442215173227 
-0.002456259440328463 
0.05465702750522755 
-0.002339009404590343 
-0.1817872178013247 
0.07935981692283131 
-0.315236189166813 
-0.03811692377935014 
0.2081816763141484 
-0.1503364867418264 
0.3380822355126029 
0.3387404316502318 
-0.1384105945738504 
0.2913850172578456 
8.131516293641283e-19 
-0.08543859277027219 
-0.2616949756506307 
-0.0802307047563042 
-0.1170650719355457 
-0.4685205352283523 
0.2510170994471234 
0.1022535724401934 
0.09835015515890502 
-0.1466358830301007 
-0.3974155486224188 
0.1209476461809261 
0.2748146831217945 
-0.01344568157088305 
0.2166765278552603 
-0.07519906048143032 
-0.09346374974864888 
-0.04545671499004153 
-0.04787459165172779 
-0.01772419910752673 
2.168404344971009e-19 
0.4282924559434729 
0.03516294308423591 
-0.06266361063170255 
-0.06631612279554364 
-0.01192450901193875 
-0.1709284521553638 
0.2854605717242135 
0.02606588591011696 
-0.1830538045713991 
0.2743975572838746 
0.2290086585345864 
0.0486934096912298 
0.1071389718731191 
-0.0829529960681567 
-0.0404613202886502 
-0.06315948456133054 
-0.4601104817610244 
-2.168404344971009e-19 
-0.05018231790487723 
0.3454736562847933 
-0.1672984355559893 
0 
-0.1747333749747017 
0.3260314918442018 
0.2137612248161675 
-0.01737397542200802 
-0.4927875661392701 
-0.3245106270271045 
-0.1600190207572077 
0.23476946900668 
0.2819520618646402 
-0.09481994934916205 
0 
0.03984345092514842 
-0.3135556231900393 
0.3628705654941584 
-0.307054959651224 
-0.04618793722670583 
0 
0.271685513675726 
0.07412372688045382 
0.3635828162619795 
-0.02162562575469659 
0.3426759527072083 
-0.01005892295811332 
-0.003604943513483904 
-5.421010862427522e-19 
-0.02746483715461292 
-0.02187873416546951 
0.4951934270579947 
0 
-0.004483285517908639 
0.07009490460248036 
0.111699181789738 
-0.4744315648932233 
0.105429780449473 
0.3530523195700941 
-0.01179246775807639 
-0.2828852326701174 
-0.1528203646781859 
-0.333200366682305 
0 
0 
-0.07619502991785433 
0.06800164405415839 
-0.07355293161384109 
-1.084202172485504e-19 
0.02718632120617311 
0.1004386174146562 
-0.1807047809188012 
0 
0.2130751816376616 
0 
-0.07145535126092294 
0.1039391076219454 
0.3581212678807584 
0 
-0.03969042194561329 
-0.04128356956192828 
0.2796299479569894 
-0.07731309382112077 
-0.1501735141923503 
-0.006722840785441524 
-0.01315452546954114 
-0.1177498841297284 
-0.7522439660632908 
-0.09360750753088115 
5.421010862427522e-19 
-0.2392275713265164 
0 
-0.05710768320157684 
0.09914213036975927 
0.3828824708209925 
0.08906917803029439 
-0.0172825431182487 
0.2481753493917019 
-0.1067720340275405 
0.1916943138045145 
-0.1994051625801149 
-0.05557887707211488 
-0.0009393320044059226 
0.006376479126683413 
-0.007786797435830699 
0.07382221415379792 
0.2399254466138068 
0.02526744509063162 
0.7357412837690259 
0.07547201614455944 
-0.1250734431662391 
-0.03016528548340956 
0.01690690707141095 
-0.025104484467496 
0.1876082424148269 
0.08674323455443983 
0 
0.2715247907865431 
0 
0.05826224672696861 
-0.0055365019602759 
-0.009758149467562588 
-0.2341320788084507 
0.07844500147987017 
0.554355037578922 
0.1733070443333753 
-0.05948763719113982 
0.1121684722813786 
0.2827874149962149 
0.4332202679356417 
0.1835599836021742 
0.03661495262470275 
-0.05064613456047308 
0.4516583403194151 
-0.08001534775520781 
-0.06709474872730244 
-0.2962918867181996 
-0.0006141272489271584 
-0.4520018743480838 
-0.09909081999253211 
-0.1470745303397332 
0.1639540804802622 
-0.2941167761983281 
0 
0.01576615972645544 
-0.09807376408332399 
-0.7146021452572016 
0.01298212896835929 
0.08312113345087004 
-0.0410575446624522 
0.2586583063199672 
0 
-0.1717000565261584 
0.0642408256386654 
-0.04636540461945166 
0.1075537114279003 
0.1386906445021234 
-0.02627844586019402 
-0.14068265340635 
3.035766082959412e-18 
0.1171015857139376 
0.00308461056285448 
-2.818925648462312e-18 
0.2682687498939058 
0 
0.0484253083402614 
0 
-0.06909612176624431 
0 
0.3109939356003588 
0.2079429893668106 
-0.01470796142204898 
-0.008785010570220539 
-0.1184846302879619 
0 
0 
0.1125344528832858 
-0.1912854137771228 
-0.1736536068935055 
0.1184855806624315 
-0.1625355033575432 
-0.01603283864500064 
-0.02900903806364541 
-0.002871092145030371 
0 
-0.001020828768368938 
0 
0 
0.2025157090643367 
0 
-0.05009102838257289 
-8.131516293641283e-20 
0.3904176126647688 
-0.01132821468656215 
-0.08816693729698394 
0.3439886387674115 
0.1800786301164562 
0.007874467802639243 
-0.30271239345442 
-0.005330754911140052 
0 
0.1571733029840429 
0 
-0.2051706450401012 
-0.1184952214255214 
0.03212489897917292 
-0.7484765305284545 
-0.1786531132436502 
0.01277987341258204 
-5.55653613398821e-19 
0.2899731118256632 
0.2723923085597632 
-0.01518672960143739 
0.1840323810607289 
-0.1734873351069911 
-0.1062533803310429 
0 
0.4447778275842 
-0.2621930517438583 
-0.1224171217918352 
0.3222730249825944 
0.1700474128178609 
0.1095544109835545 
0.1059245061414449 
0.07078339654065383 
-0.1472035425906751 
0.03514570377471429 
0.04724332632969844 
0.2622631957998685 
0.3368908657661984 
0.10223012011447 
0.008122572136849197 
-0.1076055960974622 
0.4004323465250669 
-0.08067364096383517 
-0.1064204692544595 
0.02880851681227435 
0.2942438122104568 
0.07011475493034869 
0.5053294990269345 
0.06321691987015897 
0.2130690278766995 
0.1736455196361008 
-0.02397482383178809 
0.1556253467883597 
0.3217529500094548 
-0.07918084709774197 
-0.09299188252545805 
0.01153017831915052 
-0.09028886049124775 
-0.07421341982957139 
0.05867352328233249 
0.05591474410539601 
0 
-0.02058225568381116 
0.3621127787562243 
-0.6315815911097709 
0.6693725602323958 
-0.2100555652670451 
0.01555533527301467 
-0.02881946955129831 
-0.09977194470689196 
-0.2114943837169723 
-0.02791437714309807 
0.1165931463530432 
0.1179810674455539 
-0.3724828930178332 
-0.1416093368115062 
0.4588108418105838 
0 
-0.0682465291320318 
-0.09192375444002696 
-0.3293080944065649 
0.06917860299604239 
0 
0.2239750174684434 
-0.380549840218031 
0.3042339817101802 
0 
0.02508906241612281 
0 
0.009089846499413527 
0.0303051172943725 
-0.07020657023546922 
-0.02748596113337375 
-0.007009668379323793 
-0.03242296620871211 
0.1728736771111486 
0.0784449863460019 
0.2022376635035649 
-0.1955690081659272 
0 
0.7090048495373056 
-0.02016852235632467 
0 
0 
0.1987330248629549 
0 
-0.02085254545015611 
-0.07785709872688573 
-0.1520635509030478 
-0.003836651973879074 
-2.168404344971009e-18 
-0.1083430713129351 
0.1910015317355332 
0.03972618348487184 
-0.07284157760375456 
-0.09001936981686356 
-0.1080334901153405 
-0.03843795927160045 
-1.388935678448015 
2.168404344971009e-19 
-0.1070103900283845 
-0.0437727849490212 
-0.2020417031064239 
-0.007204939663741722 
-0.009224094708964747 
-0.04249811164769156 
-0.2463521012541859 
-0.3810072620785138 
-0.08458779433738532 
-0.02634806611777118 
-0.2263550647868126 
0.06307851241388235 
-0.05432720598611541 
0.03755242406018978 
0.1427618003782739 
0.3402457313223771 
-1.734723475976807e-18 
0 
-0.125123288176496 
-0.1036772063035206 
-0.002478161812278013 
-0.0008835136997045697 
0.5001528842172203 
0 
0.1663041788109928 
0.05726522545307682 
-0.04754082323553434 
-0.02489715705563795 
-0.02192736072065678 
-0.06576678584058167 
0.05591750012189996 
0.4293783114201101 
0.1548634388446837 
-0.0422671630288516 
-0.0152045199352153 
0.3568058277105888 
0 
-0.3047801196714177 
0.3901091482367188 
-0.269253160457555 
-0.002644698210402176 
0.05966790868831216 
0.05649221014666978 
0.1801341892438899 
0.3351633461178873 
0.04035581679703753 
0.378936935140252 
0 
0.241183726523517 
0.1728504391264333 
-0.07619502991785433 
0.1584961436171751 
-0.01302612787623653 
-0.0446108057142011 
-0.008668445570705422 
0 
-0.1654687041974026 
-0.1427086118982626 
0 
0.01874623819061263 
-0.4049565966342675 
0.4395688906023897 
-0.02192736072065678 
0.1044985958718976 
0 
5.421010862427522e-19 
-0.2936805265835748 
-0.3448992759142254 
0.2293876481502948 
0.002969367694188127 
2.168404344971009e-19 
-0.002573089840044734 
0.006113238007043711 
-0.1588248350749306 
-0.04127273643706386 
-0.03361420392720761 
0 
0.005207876333467571 
0.05141211080456008 
0 
0.2912273890530414 
0.3196550134767004 
-0.1924948542450806 
-0.2064321462206091 
0.1335987470431261 
0 
-0.2378776435658031 
0.1043252018787076 
-0.01185162402815183 
0 
-0.1414420394962676 
-0.1894241013161827 
0.07421550339367051 
0.05844912022545216 
0.2779479584303872 
0.2512208983602754 
-0.01549588843808378 
0.0005445980147447001 
0.1469068626338494 
-0.06380684770311244 
-0.2088656555332893 
-0.004469331952301662 
0.1053461355828171 
0.2098518374258009 
-0.1206384767178418 
-0.5640785575748493 
-0.2182785059715814 
-0.1025166414590017 
-0.07893019288252866 
0.008193763245001401 
-0.2420382649015422 
0 
-0.06079318925985507 
0.2044068553891949 
-0.141303585363163 
0.01903418902631866 
0 
-0.244706469000984 
0 
-0.0122708108953492 
-0.5309232445838443 
0.00365891315880133 
-0.155928819162014 
-0.0142963531662654 
-0.05141713945329196 
0.3304138840106809 
0.07823076820102821 
0.0003994498638672095 
0.03163691339619927 
-1.129581482611538 
-0.07619502991785433 
0.08001204034926297 
-0.4745619249820256 
-0.4452104712368934 
-0.04637849518709512 
0.02682098897519935 
2.032879073410321e-20 
0.7626503749198448 
0.1354237122108164 
-0.01914123174058504 
-0.2648859458569014 
0 
-0.006722840785441524 
0.3761669899393889 
0.422249555836989 
0.08147937688647311 
0.2289761517232557 
-0.135316123932145 
0 
-0.03669465977710403 
0.2564440731302686 
0.1705323782882886 
-0.03347264595666134 
0.2484536669568801 
0.1188548184352351 
-0.2388504376958323 
0.3890619295986484 
0.05449385042831704 
-0.05764018937126256 
0 
0.1077567202744582 
0.5755642080420029 
0.3129531697555157 
0 
0 
0.293021597008719 
-0.08547529066679505 
-0.02512568130401031 
-0.3498114657452356 
0.05590757077644141 
0.1107195512990074 
-0.2288907310698905 
0 
-0.2540765904902446 
-0.03690484533465518 
0 
0.173592182339016 
0.6469661375008914 
0 
0 
2.168404344971009e-19 
4.336808689942018e-19 
4.336808689942018e-19 
0.04523262825375465 
-0.629531344638953 
0.3864612316873943 
-0.08667962945942329 
-0.09341178301947765 
-0.190542369423276 
-0.01056093927739993 
0.01041816825336252 
0.2182567785341893 
0.44375711051673 
-0.3192493556554165 
0.1068587802933428 
-0.5278920067158674 
-0.4385163748264382 
0 
-0.01826044444244691 
0.01138874512274188 
-0.3384637169898715 
-0.056869456618846 
0 
-0.1856448916652567 
0.1499727163176433 
-0.04262885245863145 
-0.2166606966905872 
0.1527418570732802 
0 
-0.06298539638970983 
0 
0 
0.5438639362226311 
0.1855162983079482 
-0.2539100454042779 
0.224457123537044 
-0.006722840785441524 
0 
-0.08208435631907293 
-0.1564747706026338 
0 
-0.7646752037935802 
-0.007760806093472964 
-0.01931927666234103 
-0.02334872817288524 
-0.09404042231132347 
0.04322957822565485 
0 
0.2883599924892539 
-0.06405968073820839 
-2.168404344971009e-19 
0.4261163185652913 
-0.09746065692645198 
-0.0152045199352153 
0 
0 
0.4924252487251729 
0 
0 
0.1848531961128198 
-0.001449007281418113 
0.4410615034668741 
0.006419081259524897 
-0.2432051904361626 
0 
0.02022564749395454 
-0.7946480122272845 
0.1026248997647527 
-0.01528624330327351 
0 
-0.07323296015803456 
0 
0.04972573608899764 
-0.007920195303151511 
-0.006722840785441527 
0.1119820208849094 
0.3650686266764381 
-0.09002765277215415 
-0.104938398073509 
0 
-0.02187873416546951 
-0.2104747842129236 
0.09319330952029814 
-0.05613192428381869 
0.4699943313953805 
-0.2037188485126776 
0 
0 
-0.07931391263036192 
-0.03382764983781583 
1.084202172485504e-19 
-0.06218283564331599 
0.464129122109889 
0.1230743310747988 
0.1587810573001566 
0.03282090114681567 
-0.009850677328469131 
0.6432999260311725 
0.3174655669177568 
-0.2827990609452864 
-0.08208017804351236 
-0.04883243075837489 
0 
-0.07204210332796389 
0.3396805998549561 
-0.1707553069358925 
0 
0.08766254216653295 
-0.1080725168789047 
-0.04015975182147795 
0.04234178987408855 
0.318536555607275 
-0.1979097026575051 
0.04497956320963368 
-0.2212985883236295 
0.04251068001599085 
0.02761249260723522 
0 
-0.147015806839062 
-0.03229399294519146 
0.05478640118484508 
0.2371081498647966 
0.05991013676466909 
-0.01307980574170087 
-0.02754885372018944 
-8.131516293641283e-20 
-0.006722840785441537 
-0.02403342848331738 
-0.179952043039694 
-0.1135850699628581 
0 
0.2493546258194716 
-0.2549734706692768 
0.6052392365953092 
-0.1451866172890522 
-0.2603405443838871 
0.2120281288177148 
0.2060894947008736 
0.223463719054928 
-0.03083659837711215 
-0.01661495109654721 
0.02500555596956794 
0 
0 
0.200115182476034 
0 
-0.04389022585959992 
0.01656604717122631 
0 
-0.001252715798089625 
-0.0560063508324571 
-0.2636739988589479 
0 
-0.002134600245032007 
0 
0.06417640093816467 
-0.08933261644421581 
0.3658803307605097 
-0.03034145651244487 
-0.594841610135477 
0.2208175173500879 
0 
-5.421010862427522e-20 
0.2791976517452153 
-0.7383467283105231 
8.673617379884035e-19 
0 
6.776263578034403e-21 
0 
-0.506141691169418 
-0.01786976137870053 
0.03642696156133294 
-0.1426816650103321 
-0.1095162000705177 
0.1430410789429337 
-0.3016209319653412 
0.04139454084139103 
0.6134728218365587 
0 
-0.02662952814717539 
0.1339653883489017 
0 
-0.01810051702739821 
-0.001350593184402879 
-0.02156182555262548 
0.2910814662381062 
0.01659459042723726 
-0.04159041513745085 
0.06844973096467262 
0 
-5.421010862427522e-20 
0 
0.07855313911826925 
0.03551087635135206 
0 
0 
0.1251632006699907 
0.4165851339428945 
-0.05466149865359473 
0.155568150620915 
-0.007345245732289886 
0.3986515126970769 
0.4340204231359645 
0.039313759674481 
-0.07432684407895766 
0 
0.0616083915204053 
0.02767353514971892 
0.09665606366668947 
0.295725398645079 
0.3988113579921568 
0.05909019145992782 
0.1888614417256956 
-0.08808720940863368 
-0.002134600245032008 
-0.06042696157770413 
0.4323176931695689 
0 
-0.008436686212320974 
0.1960655107026327 
0.04776509941161657 
0 
0.009234595087246946 
0.6380174374601079 
0.03619352586648909 
0.1445120022841033 
-0.01908709774292044 
-0.002784986403841175 
0.1247285056691914 
-0.1700004016708365 
0.002014872290378572 
-0.10467316564476 
0.004408583610384633 
5.421010862427522e-20 
0.01371165679462723 
-0.06535291905022607 
0.07986077697927241 
-0.09946366108693312 
0.5857387008586927 
-0.07619502991785433 
0 
0.1236923793950767 
-0.0152045199352153 
0.3538673157301016 
0 
0.03858794046038497 
0.3783070422197814 
0.1585626907372378 
0 
0.1963247930626681 
0.08307802104861185 
0.2143969543615426 
-0.008368161489165334 
0.3423532445332337 
-0.2081912596681594 
-0.006722840785441525 
-0.2444965941668153 
-0.060056384812254 
-0.007476145023196527 
-0.0003558042728223186 
-0.1029888503404768 
0 
-0.2918690874559925 
0 
0.03409159922576829 
0.2008695795764575 
0.02682098897519933 
0 
-0.06158389330808584 
-0.0114937828777537 
0.4050619556769824 
-0.007209887026967806 
0 
-0.2301998891579882 
0.1573958820620804 
0.1158149811316954 
0.117771240094199 
-0.1130772051806361 
0 
1.084202172485504e-19 
0 
0 
0.09372384684086095 
-0.03569157411931782 
0 
-0.0741751116396985 
-0.05572612350728155 
-0.03693224707227563 
-0.1940849714461881 
0 
0.2056947107842163 
0.2967339237110748 
-0.07168832246265526 
-0.03347020898449272 
-0.0530109162577061 
0 
-0.03624611595945594 
0 
0 
-0.08807105900640211 
-0.1037011148348901 
0.02342108293720023 
-0.04227280705293936 
-5.421010862427522e-20 
-0.1224372977767258 
0 
-0.1261911750163482 
0 
0 
0.1323361882501229 
0.1823934293410579 
-0.6434368563091353 
-0.07511475205785814 
0.2950809625509661 
0 
-0.001020828768368939 
0.2092044144805391 
-0.1435585957132973 
0.1841044473697138 
0 
-0.3872960633599831 
-0.2112799627824376 
-0.1747543851834055 
-0.02030141522810612 
0.5470593363312073 
-0.05772996187521867 
-0.008922914557280174 
-0.2978737038925287 
-0.1277058762416297 
-0.007707868351429247 
-0.3131482811605824 
0 
0 
8.673617379884035e-19 
-0.04971757825766994 
0.03613386276771916 
-0.2761977842366462 
-0.06653788614360157 
-0.06505937475373456 
-0.04675705734281747 
-0.06174499192957528 
-0.1980942278361916 
0 
-0.04058066121404488 
0.03788414513524032 
0 
-0.03060938267002735 
-0.1067269788438766 
0.06237281856733857 
-0.05411341865015003 
0.2927990018226101 
0.1655707123198674 
0 
-0.1318500485885218 
0.004076034868991951 
9.540979117872439e-18 
0 
0 
-0.1608101167515156 
0.01077350611852806 
-0.02943561725086275 
-0.09605828549697397 
0.3050999018604357 
0.08950846705930976 
0.1880433190618107 
-0.04927498923497501 
-0.02444046355179648 
-0.03634077652395704 
0.1730220238104926 
0 
-0.2386241464040961 
-0.008207221691439963 
0.1284607851626628 
0 
0.1713500645024573 
-0.02099513212990327 
-0.1262339636224593 
-0.004451842169056633 
-0.3726499267525147 
-0.1022072685258145 
1.084202172485504e-19 
0.04436303297446764 
-0.04333928182346208 
-0.006722840785441524 
0.1239689650326403 
-0.0152045199352153 
0 
-0.04726503963984081 
-0.006029113522495061 
0.1142923643725636 
-0.02223714045791529 
-0.002119142593860728 
-5.421010862427522e-20 
0 
0 
0.01734273587143146 
0 
-0.008512689132324731 
0.2504672225402318 
-0.03847934644170172 
-0.1599714476504084 
-0.04526208062256202 
0 
0 
0 
0 
1.084202172485504e-19 
2.168404344971009e-19 
4.891615270393584e-20 
0 
0.2973517467042296 
0.07709306839740324 
0.1155769474095737 
0.07392553420096439 
-0.03485111432755556 
-0.2163392856355037 
-0.1065831064750907 
0.4494092890971839 
-0.02238007619439715 
0.1210116757834799 
-0.3400894931642996 
-1.084202172485504e-18 
-0.07047815070905218 
0.123481897147017 
0.0003750686337396031 
0.1576982029872175 
0.185368583571736 
0.2816127343079056 
-0.1387437695893412 
-5.421010862427522e-20 
-0.004469331952301659 
0 
0 
0.1107906848451616 
0.366068556162057 
-0.09348433502853802 
-0.0560063508324571 
-0.01455306977662895 
-0.4510612285118576 
0.4961673243257506 
0.09969769976702206 
-0.03351534309863917 
0 
-0.03489911567200763 
-0.0008835136997045702 
0 
0.17364332213627 
0 
4.933119884809045e-18 
0.1197486558901861 
-0.1559950033491931 
0 
-0.027124867666484 
-0.01110585978669822 
0.1090226116395065 
0.03302639981317692 
-0.01708096919103853 
-0.2102257991381452 
0.1054893972253131 
-0.1498631626166189 
-0.2870966973008897 
-2.710505431213761e-20 
0 
-4.336808689942018e-19 
-0.001753760796632165 
-0.008368161489165332 
-1.421231267089321 
0.5173505416989087 
-0.09889628724979468 
0.01825787684871951 
-0.2176361096175886 
-0.2217406702167169 
-0.2304158193144184 
0 
-0.000649779770882341 
0.1323925991623604 
0.04523888039878588 
0.4552575472831802 
0.002519307951762942 
0.6668466169149609 
0.2304460369085842 
0.3497108686232344 
-0.1710538019128363 
-0.3296928615720148 
0 
0.4811496659487522 
-0.03309278290141894 
0.006884548839410124 
-0.1623751956308472 
-0.2637442549781197 
8.673617379884035e-19 
0 
0 
-0.02187873416546951 
-2.168404344971009e-19 
0.443504242805011 
-0.07909920613142914 
-1.084202172485504e-19 
0 
0.2598024331724617 
0.246455090155845 
0.05066192465920782 
-0.0201685223563245 
-0.557618833317473 
-0.008966571035817288 
-0.0560063508324571 
0.02634504109500852 
-0.008476601582073648 
-5.421010862427522e-19 
-0.04264613168296157 
-0.2838888478137155 
0.02049303552170872 
0.3039689585068209 
-0.008849480295063855 
0.02159537792388976 
-0.04541139332154507 
-0.03024689565463485 
0 
-0.01774045995528465 
-0.01791967274261737 
0.08046278833739656 
-0.1720458502916569 
0.09031419452332903 
-2.710505431213761e-19 
0.564883862243213 
0 
-0.02099513212990323 
-0.02364120614753625 
0 
-0.00574274921921038 
-0.005543003130802579 
0 
0.7924473368335996 
0.5491256810443209 
0.0107169098280986 
-0.174758576720945 
-0.07539588033853863 
-0.2069026261604683 
-0.1519691669734345 
-0.2632434499075872 
-8.673617379884035e-19 
-0.02337108375713451 
-0.0569524935638164 
0.0289908145202414 
1.463672932855431e-18 
-0.01768606679220814 
-0.006063980064875085 
0.08673629525753243 
0.03456793597959076 
-0.1700122492602996 
0 
-0.1065171226203006 
-0.1401599437868096 
-0.05786409056529358 
-2.710505431213761e-20 
-0.02471402707262465 
0 
0.3055762032217567 
0 
0.06882991284827479 
0.05585381934173694 
-0.1502966750360038 
0 
-0.01550536356293902 
0.001895742042473096 
-0.02030866377705999 
-0.04842376811702838 
-0.04754082323553433 
-0.1180404499719822 
-0.04218343106160485 
-0.1669618385913705 
0.1783232981346941 
0 
0 
0 
0 
0 
0.01948374945868478 
0 
0.3156846874259136 
0.1317542087062741 
-0.003604943513483897 
-0.01520451993521532 
0.2464715122143625 
-0.2216596989789735 
0 
-0.1062929619428153 
-0.03204607320569482 
0.09330366063025745 
0.266567789793401 
-0.04118915952032017 
0.0521286934552362 
-0.02764163429597917 
0.1990996431452497 
-0.02835595977876074 
-0.2685327477174071 
0.03885743878381695 
-0.160705211893589 
0.1520328157678512 
0.1211404910186699 
0.5203934997645869 
0.2405770519468665 
0.09670609210396283 
0.4609880580478543 
0.05521962292795037 
-0.04592178201209426 
-0.001350593184402878 
0.06600104763386684 
0.09388653164329012 
-0.003202204703516847 
-0.08276791096600186 
-0.002573089840044693 
0 
0.1765316167849491 
0.0686386035571848 
-0.1260485995744345 
-0.1135440796172151 
-0.3645405016677723 
0.2087565763640859 
-0.1419361009048533 
-0.016093749997201 
0.07078228649136299 
0.2334694276448704 
0.3095224810414435 
0 
-0.1904495484235277 
-0.8070323796160355 
0.2520208561087079 
-0.009632479963451969 
0.3010177048467185 
-0.01282884328456448 
0.117770029746001 
-0.006133497075598246 
0.5249369919795662 
-3.469446951953614e-18 
0.03687784263258367 
0 
0 
-0.06556552897625037 
0.09315621246173304 
-0.00305294857377077 
0 
0 
0.03004301065803861 
-0.03557067288161984 
-0.005990325945746254 
0 
0 
0 
-0.0031111865569522 
0.0008892741000636822 
-0.324852654094798 
0.06109847741881846 
0.04186655721807209 
-0.2194755502431024 
-0.08842562905652707 
0 
-0.3333757648739389 
-0.6364015049865636 
0.1208634433456794 
0.4579770769303751 
-0.2734388650934839 
0.1622758360045777 
-0.11527997996689 
0.1261501385883695 
0.03283779493438439 
-0.177610814763142 
0 
-0.03370791754484711 
0.4175819089065491 
-0.08965312869507464 
-0.004074949583420401 
0.1583580183974125 
-0.1854389676128964 
-0.006734751694964718 
-0.2079371436018927 
0.02013488022224522 
-0.007345245732289886 
0.09103943163159205 
-0.006722840785441522 
-0.5530088728478011 
-0.09360774676483685 
0.5331709354065897 
-0.09017938985315926 
0.4932457883695158 
-0.03138891715542581 
0 
0.1953621369114009 
0.005864352726309941 
-0.005194134863932664 
0.2765981728971578 
-0.1756849952822743 
-0.2540462455410595 
-0.03560669884151881 
-0.2911987199193307 
-0.02377866517264509 
2.710505431213761e-20 
0 
0.2525764076626562 
0.06839682651142175 
0.1056847068072446 
-0.04293580222659271 
-0.1329465531510997 
0.6450179997444381 
-0.1750211308742421 
-0.1033140470759779 
0 
-0.07826914253194484 
0.02969808587968012 
-0.1484313194280785 
0.2186758196818462 
-0.1240956760868795 
-0.6973949958251406 
-0.1676950606554092 
0 
-0.03103039128057679 
-0.1294328597439507 
-0.03227820250921557 
0.08449524799399713 
0 
-0.0869902000182658 
0.1404435215688719 
-0.3285165547019483 
-0.002505431596179248 
0.1824027087146706 
-0.01520451993521573 
-0.9252455367127875 
-0.01984076507847086 
-0.295721604174095 
-0.07856410402030645 
-0.2599514277627403 
0.09072988661275257 
0.4232876485602178 
0.1802879856445881 
0 
0.1793877783425262 
-0.6590716162880247 
-0.02107133595122927 
-0.1973018639893728 
1.240056234780296e-18 
0.1389820743507857 
0.04552840493124096 
0.4319991336562333 
0.2888052192932792 
0.271593179257147 
-0.161089936828297 
-0.4953193565628229 
-0.3899212450607396 
0.09299609580745823 
-0.1620319544796787 
0 
0.01221913679846486 
-0.09446677779995274 
0.100591157935454 
0.5041868780790312 
0.07380175792189338 
-0.052382878417165 
0.04900199769015272 
0.1153132520042249 
-0.09269619092967671 
0.329394748706417 
-0.04382345073257778 
-0.05106672020901009 
-0.05142802570246742 
-0.09513408145909494 
-0.04731648392705251 
-0.1023626865158469 
0.4388253343980988 
0.02807710197087094 
0.02358643006128775 
0.05356585715786761 
0.0743427357885719 
0.1589050927884323 
0.279587178707507 
-0.2171227304511537 
0.1281880065263671 
-0.3111809240554052 
0.4092077893353238 
0.1359139759234242 
-0.008501938989980782 
-0.004528018428796127 
0.02367398779829022 
0.3208048683198561 
-0.1638842361704453 
0.2718701954731237 
-0.5444785863176244 
-0.3357503236310362 
0.05011687705244652 
-0.5773250707128627 
-0.4776373911298155 
-0.04539947729790902 
0.3097885772955589 
0.06656758189378649 
0.02014211408142668 
0.0727658465691529 
-0.2935766287609755 
0.05328933152262525 
0.001042384928066925 
-0.3875323764307836 
0.162747724329102 
0.2519741986418628 
-0.1556850793371542 
-0.1119087538674308 
0.2529473367724452 
0.01390766742432254 
0.1611628278018183 
-0.5286067525903169 
0.3240440332114301 
-0.4504235906712357 
-0.155058789243044 
0.1507993022314849 
-0.5821479222720489 
0.06560288569139242 
-0.1894669112415737 
-0.01021334404180203 
-0.1700500021407867 
0.6172926779248117 
-0.09336491086191442 
0.1575328168101153 
0.1843242940148952 
-0.2709666665121991 
0.01198176021160728 
0.09050716237597267 
-0.373488653970789 
-0.1167623562110788 
-0.1209612940832461 
-0.09536185225790177 
4.336808689942018e-19 
-0.2527135045743366 
0.06274536091266722 
0 
0.1194757842343727 
-0.190370668256334 
-0.1903061043198034 
0.5552255056178913 
-0.06103471714016212 
-0.5832750286830074 
-0.09090728934649649 
0.04986264332349959 
-0.227628848974111 
-0.04021661206775661 
-0.05796654694189252 
-0.1691290346058108 
0.3625240442327673 
0.4230976094275397 
0.1404022331670141 
-0.2666931479038498 
-0.01094987703757692 
-0.211098075150597 
0.1399214880062273 
0.5137076955663429 
0.07935048983473206 
-0.1499456870045442 
-0.001306111486559301 
0.001290683506791124 
0.1771434601920643 
0.4286637549581204 
0.2518376596341685 
-0.424876861146474 
-0.3722271636651292 
-0.0913487824961462 
0.07491930519421496 
0.2525720193720373 
0.2690459190023903 
-0.1609404691812426 
-0.1075177734391781 
-0.01003542226208136 
0.1339730549699488 
0.1225057149364939 
-0.1991272898650301 
0.07121585311543097 
0.005162577521171552 
-0.08243149518007875 
-0.02095832004000624 
-0.1509425715009803 
0.3343038308589824 
0.1792823913393664 
0.07263617238221327 
0.03772961474274192 
0.004024112111015525 
-0.0029309202892186 
0.2046007649596359 
0.4685655034283121 
0.1569925901351383 
-0.5962687551161804 
0.1705250902285637 
0.1963136878220021 
0.2375815559564302 
-0.03034145651244489 
-0.1588216671815968 
-0.1584610928674689 
0.1333517192467934 
-0.03072657242924296 
0 
-0.03762883149345806 
0 
-0.04709404094422448 
0 
-0.03161948204957454 
0 
0 
-0.03072657242924296 
0 
0 
0 
-0.2273331420167122 
0.008128056952341364 
-0.1591640737647874 
0 
0.04752698600038334 
0.09834388987873438 
-0.0738392501404089 
0 
0 
-0.06952999299515381 
0 
0.5420949747606628 
0 
0.4320939425145406 
0 
-0.3391487263915595 
0.2125036795958937 
0.09902857299344557 
-0.1312114820673439 
0.108001010135244 
-0.1397005022921883 
-0.006902259064215014 
-0.3036860656280285 
-0.7088426803228538 
-0.1869463589037063 
0 
-0.1833346917120579 
-0.01635821021330628 
-0.00554300313080258 
-0.0927875133626531 
0 
-0.09396550680532537 
0.4133536630849275 
0.3074728499400541 
0.0696668378532163 
-0.05212166342451453 
0.2540618842113906 
-0.001005429567521875 
-0.5244544206177488 
0.01972288770223852 
-0.03192456255195453 
0.3045281243767233 
0.03672118070816728 
0.3474704376377361 
0.1137509498709113 
0.04033519354823979 
-0.06226857313665432 
-0.09308678355434656 
0.4310230581050341 
0.1370433136101588 
-0.1191741499191259 
0.1562133172252957 
-0.07939464421137106 
-0.001727897399590634 
0.2170410117184603 
-0.04568527064135772 
0.05716518499371973 
0.4761148771920575 
-0.1159734981694652 
0.2994395460598747 
0.2348882672836357 
-2.168404344971009e-19 
0.122743112032282 
0.01692984078349674 
-0.1383846606811679 
0.217626325766394 
0.2321889427304821 
-0.5663087706431905 
3.388131789017201e-21 
0.109284751812792 
0.09162425259655312 
-2.710505431213761e-19 
-0.104291715533395 
-0.1527194431678228 
-0.03384882814345667 
-0.1837833291977882 
-0.4354686588435691 
0.1800437506527014 
0.7046556746351739 
-0.001820953387066605 
-0.2168741850724346 
-0.2153486971643061 
0.05457514289715807 
0.3711055562345463 
0 
-0.08951936118389617 
-0.1706367401393284 
-0.0105387713668527 
0.2086327366948194 
-0.03495580393636206 
-0.05510495111088089 
-0.01492784505389756 
0.02397634633276856 
0.1741317765959583 
-0.0676748423594751 
-0.1126368629556011 
0.08505380017320638 
-0.6632317940498635 
-0.5181026917499375 
0 
0 
-0.01056093927739994 
0.2128376998207432 
-0.0206406430074538 
-0.3567645091969357 
-0.05052322444340984 
-0.03278276448812519 
-0.0304439506925217 
-0.6522438838638334 
-0.04683262558270011 
-0.03278276448812519 
0.1862890929435624 
-0.07174868340307086 
0.08133189752079786 
0.132203642799238 
0.5684165630010014 
0.4276039213030105 
0.01979296885137907 
-0.1118449586613917 
0.4655045411290806 
-0.03278276448812519 
0.6002618650810705 
-0.203566655853491 
-0.5364484926066967 
0.2059437030248895 
-0.1233457767004235 
-0.03278276448812519 
-0.03278276448812519 
-0.0159584333030103 
-0.02486211764112358 
0.2436244546929617 
0.192891515613764 
-0.1498310065589024 
-0.1127639990831435 
-0.4757628334440923 
-0.3293505436039397 
-0.03832576761892779 
0.3069459836229344 
0.3674781761993303 
-0.08893661273338493 
-0.03278276448812519 
-0.1428698988356364 
-0.03278276448812519 
-0.02956466670763031 
-0.06365828733772574 
-0.08347853300921899 
0.3670340272458195 
-0.06225084635096295 
-0.03380359325649411 
-0.04054517719193502 
0.2461991871318392 
-0.2003425823157187 
-0.1861437197845439 
0.3885369562059295 
-0.05740656404334953 
-0.03278276448812519 
-0.04910653256820402 
-0.03278276448812519 
-0.221484673388509 
-0.0327827644881252 
0.199510850197621 
-0.02445533210477466 
0.4472097187279299 
0.2336239334262826 
0.091369077952994 
-0.03278276448812519 
-0.1515364089616104 
0.05707497979008843 
0.1301317675029678 
0.5918228638654747 
0.3318916067110823 
-0.2124432111721451 
-0.03278276448812519 
-0.03278276448812519 
-0.03278276448812519 
-0.3651858280526011 
-0.1803357184760431 
-0.0506038271885475 
-0.3971460875461023 
-0.03278276448812519 
-0.111579370502276 
-0.03278276448812519 
-0.07545847102880776 
-0.1410081438648874 
-0.02120597706945296 
-0.1196345058424336 
0.00793630380101026 
-0.06556552897625038 
-0.03278276448812519 
0.4720445379436988 
-0.03278276448812519 
-0.03278276448812519 
-0.121930925998408 
0.08018869016041938 
0.1830624250626013 
-0.03278276448812519 
-0.03278276448812519 
-0.4108947454598518 
-0.1255075405128369 
0.06649416932161925 
-0.266808269020141 
-0.2605640178560106 
-0.09937110715376379 
0.1103743242279415 
-0.03278276448812519 
0.1119809012810177 
0.04347854265204618 
-0.06556552897625038 
0.198807994620626 
0.1649838643534223 
-0.07742054476899365 
-0.01776933682016796 
-0.1083739110125273 
0.02460665613711007 
-0.006955501501733171 
-0.05986863584587268 
-0.05610274837278674 
0.3879195987892163 
-0.0956694773830858 
0.4265328679752862 
-0.3587574377754115 
0.0207249553497994 
0.2523583294213581 
0.05482387720875927 
-0.132918230526719 
0.2205714811376547 
-0.2013790048225576 
0.3554776328423569 
0.2665523986887363 
-0.3153584990179014 
-0.3073979975972992 
-0.03278276448812519 
0.6093136542805961 
0.2642347283019767 
-0.1579183599948094 
-0.03278276448812519 
-0.003811412354530071 
0.1558543064571481 
0.08078207072384816 
-0.02715474805210888 
0.1626930750183553 
0.4249395573709967 
-0.03278276448812519 
-0.3135494921760009 
-0.1743875189756297 
-0.1461175206623643 
-0.03278276448812519 
0.1754688832314876 
-0.03278276448812519 
-0.07477302874793153 
-0.2453719131605346 
-0.03278276448812519 
-0.05466149865359473 
-0.03873468200425967 
-0.0328041386245912 
-0.4724641961056258 
0.02918760950224257 
-0.02968968455143663 
0.3284046109523918 
-0.03280413862459122 
0.1275578517505588 
0.08027038040797477 
-0.550832086571168 
0.2664395064753126 
-0.08749346687260982 
0.3663577202462125 
0.01560895637350666 
-0.1639138224406257 
-0.03278276448812519 
-0.0990100027586235 
-0.0550199049460405 
-0.3947211105923517 
-0.2212816668785243 
0.09192655774016269 
0.08186548250761541 
-0.2312094623083708 
-0.3486019414094636 
-0.2496470530018218 
-0.09564094835265891 
-0.1071872260501393 
-0.1435898839151956 
-0.03278276448812526 
0.2418710427158674 
0.3575447114356075 
0.3855667774567997 
0.04482184481444235 
-0.08945779783265803 
0.002166772491825784 
0.1385657166573243 
-0.1597231439501682 
-0.2858659140474342 
-0.3142415008810273 
-0.05766956505128973 
-0.07934361675853063 
-0.2352746999375034 
-0.03278276448812519 
-0.3348859673999928 
0.4282889911413877 
0.08785490774907558 
0.3736091748359753 
-0.1341878984056497 
-0.01710787642779136 
-0.1826550499404213 
-0.09305647900007077 
-0.1771315483358709 
-0.04849334493977034 
-0.03278276448812519 
0.2916864805735239 
-0.07477912673072022 
-0.06718897420639665 
-0.03368994106732714 
-0.04172125021132112 
-0.1001476391072667 
-0.1246326833041049 
-0.08993987486945552 
0.1060873456685069 
-0.07682502008460489 
-0.03278276448812519 
-0.1075669495708832 
-0.03278276448812519 
-0.03278276448812519 
-0.03278276448812519 
-0.03278276448812519 
0.04925613036716518 
-0.03278276448812518 
-0.06556552897625038 
-0.1601555116871747 
0.102317985220941 
-0.03278276448812519 
0.2200999956492678 
-0.08007584085739426 
-0.2581588117808158 
0.06145631838167206 
-0.0336141114607502 
-0.1219269881024889 
-0.09770826654111464 
-0.06314365566987856 
-0.007632826654435243 
-0.08936441604636793 
-0.2094782098470724 
0.4506198665906844 
-0.03278276448812519 
0.2424805224377686 
0.5047547893219683 
-0.08382495153929879 
-0.1303651711299557 
-0.1881734153254316 
-0.1287339729587945 
-0.280192018318031 
-0.03278276448812519 
0.4445704508084801 
-0.03278276448812519 
0.04573111582643524 
0.7872571844252916 
-0.08360907692281509 
-0.03278276448812519 
-0.1630221002960308 
-0.03278276448812519 
-0.03278276448812519 
0.1204681565851134 
-0.0860306556669156 
-0.03278276448812519 
0.002554025483880277 
-0.02815170184008165 
0.07650488041500904 
0.004834725659307049 
0.3876647179894226 
-0.1177881703774639 
0.01863806915128762 
0.1954575766746856 
-0.1218125779720789 
-0.1793454584580688 
0.2199749991274408 
-0.1907546500266033 
-0.08866106556720153 
0.1342862083878739 
0.02210409541062962 
0.1810724802179503 
0.0006769544555235665 
-0.1812591092447546 
-0.03278276448812519 
-0.2002866500129996 
-0.03968502355234026 
-0.0528751809779126 
0.1545975969823953 
0.3513201621077462 
-0.1372919443095155 
0.1815908959788387 
-0.07750853900291002 
-0.02056328892506262 
-0.01359071134992036 
0.4182672686451956 
-0.09879688363181688 
-0.05519069152133069 
0.06003802721299227 
-0.005212713395552137 
0.3866865126583121 
-0.1061836169497481 
0.08429120157729908 
-0.2401287248466623 
-0.03278276448812519 
-0.03278276448812519 
-0.1117066111952618 
-0.2542915614715015 
-0.127088237172756 
0.09895533468519641 
-0.02835076649880532 
0.293989366041182 
-0.1989672271185183 
-0.5902183093113625 
-0.07938430290217646 
-0.08302618952868315 
0.04024312238463229 
0.2775418993745284 
-0.03278276448812519 
-0.07878325487149557 
-0.03278276448812519 
-0.03278276448812519 
-0.1311310579525008 
-0.1578149758256392 
-0.2758436115752316 
-0.01950251487089853 
0.3951318827465417 
0.007326671758603296 
-0.2505904390926244 
-0.06369567150867646 
-0.01003844330276583 
-0.04711480629784898 
-0.1454463971346486 
-0.03278276448812519 
-0.0742405457849637 
-0.2209954439395796 
-0.149561656416193 
-0.05844624118939153 
-0.02640461024873163 
-0.01344578378215004 
-0.0327827644881252 
-0.04600049038337028 
0.3940216179839986 
0.4408113295178605 
-0.04453539705071531 
-0.03899239391991278 
0.3226692957283639 
0.01700208210323038 
-0.3727556048407192 
-0.2958321897047542 
-0.03278276448812519 
-0.491176653093206 
0.5252176093054236 
-0.1437136520009031 
0.03282541702443103 
-0.03278276448812515 
-0.1990688307497562 
-0.111712957370654 
-0.03278276448812519 
-0.1194667801865389 
-0.06274341885252958 
0.2745282360346818 
-0.1762335429923361 
-0.006903068030976016 
-0.415364507216853 
-0.4648814338380346 
-0.1773792708597982 
-0.08789923314089569 
-0.1227165764306763 
-0.03278276448812519 
-0.03724327149842725 
-0.03278276448812519 
-0.09281696735445666 
-0.1968425540045864 
0.08170501359207025 
-0.4301274909892281 
-0.1606131385373909 
-0.0327827644881252 
0.5835370648291236 
-0.1361929227849544 
-0.04678612334751069 
-0.07001626925225572 
0.1391891029277201 
0.06393909625640469 
0.03827849985586616 
0.01804020334865348 
-0.0812004457832023 
-0.03278276448812519 
-0.05032384054978193 
-0.03278276448812519 
-0.1102761755904141 
0.07629669228101717 
-0.4401948086475395 
-0.03823914503009192 
0.04657753303532964 
0.04200463806847983 
-0.09797073197872071 
0.04657753303532964 
0.5002206975551109 
-0.226149384335423 
-0.09834829346437575 
-0.1747942412387557 
-0.02708437287204789 
-0.3526309352677802 
-0.2604735246695785 
-0.03278276448812519 
0.04439371714973705 
0.291590425050805 
-0.2453187073395445 
-0.03278276448812519 
-0.03278276448812519 
-0.09546041904406562 
-0.06045470064926845 
-0.03278276448812521 
-0.06562618113860695 
-0.03278276448812519 
-0.03278276448812519 
-0.087139338928216 
-0.04622844605900821 
-0.2967484524115401 
-0.03278276448812519 
0.2188820278514263 
-0.03564219415639405 
-0.03278276448812519 
0.7851229763529176 
-0.04115092597729052 
0.2248422056682762 
-0.03278276448812519 
0.3782476878496746 
-0.06487520575589911 
-0.03278276448812519 
0.1485927678626762 
-0.3239006747215011 
-0.1611267711062897 
-0.17381601146898 
0.1991970018699247 
-0.1516969329482284 
-0.03278276448812521 
-0.03278276448812519 
-0.2135853737227784 
-0.3216129833315495 
-0.09435558555815904 
-0.03632821995794304 
-0.2142695426235315 
-0.05743628098392127 
-0.03278276448812519 
-0.1185969307665758 
0.2647895831544991 
-0.03366627818782979 
-0.03278276448812519 
-0.03278276448812519 
0.2775999201739239 
-0.1349667095674922 
-0.274569670317557 
-0.03638770800160905 
0.05249741641099041 
-0.2142363426558 
-0.5494067183621761 
-0.07544591226364429 
-0.3310633447548183 
-0.2751437669728637 
0.1309747412896688 
-0.02146376385622532 
-0.03278276448812519 
-0.03278276448812519 
-0.4305907072267907 
-0.03278276448812519 
-0.03278276448812519 
-0.06556552897625038 
-0.2909973369403482 
-0.02380980178361192 
-0.1871271231809332 
-0.05129367292473139 
-0.004168281012595191 
-0.2591035276758692 
-0.03278276448812519 
-0.03278276448812519 
-0.03380006458153138 
-0.03278276448812519 
-0.1128707205542224 
-0.03832576761892779 
0.1415725542896622 
-0.1534123526100959 
0.3053953254389231 
-0.03278276448812519 
-0.03278276448812519 
-0.02390561454480969 
-0.07294378552620122 
-0.03278276448812519 
0.0318224922814279 
-0.03278276448812519 
-0.0416842579218781 
-0.08069992297545776 
0.1150483923014784 
-0.2374576446580979 
-0.02314693649937125 
0.02164904857885507 
0.07076749712209818 
-0.09604535522647557 
0.1234349420961766 
-0.03950560527356678 
0.3901812861316086 
0.3709270587831812 
-0.1470742652151703 
-0.07701907865994068 
-0.07944103867875027 
0.112154494773069 
0.03262066143239085 
-0.2215230456266056 
0.3068987245949253 
-0.1163374798315777 
0.1769177928754578 
-0.04011275411378866 
-0.03217484745788875 
-0.03278276448812519 
-0.03278276448812519 
0.123420202732287 
-0.07576639448397739 
-0.06681824477434015 
-0.1059677122993092 
0.289655799950718 
0.00750001775009702 
-0.1000793082588109 
-0.04187263589114545 
0.04189697803916792 
-0.06288668370717247 
-0.05615384824525958 
0.02424949780288448 
0.2021635349097133 
-0.03278276448812519 
-0.1089777944059797 
0.2271975134587285 
0.2665171742249177 
0.1547088866335959 
-0.03278276448812519 
0.03282070936202893 
0.08421579741610559 
-0.3210992916939892 
-0.03278276448812519 
0.03202054700503175 
-0.03278276448812519 
-0.009857976009936164 
0.4087153031997643 
-0.06156581761082589 
-0.03278276448812519 
0.08237837781893789 
0.522951679470826 
0.2417574079715779 
-0.1533000957186192 
-0.03278276448812519 
-0.06742739576737934 
0.3521073606362642 
0.05555393600675654 
0.03693379190561547 
-0.1175788918553737 
-0.03726605000603384 
0.04733623380843827 
-0.2148378773613913 
-0.0806602259552453 
-0.1680533563743007 
-0.06556552897625038 
0.2927978925967837 
0.1645823792372373 
-0.05149179228546046 
-0.1493231230596266 
0.009707941855271339 
-0.5236222124183706 
0.242253195674172 
-0.06751851794546687 
0.268153698854758 
0.06961799839012411 
-0.1189328594129619 
0.3863918872791979 
-0.7531593303808873 
0.021922986649136 
-0.5957878300368699 
-0.1144185858919619 
-0.1026487830769355 
0.002982738916079838 
-0.1053212260487486 
-0.0506438405359465 
-0.0999687120290864 
-0.01243911003596572 
-0.0520970538009882 
-0.04145121005883057 
-0.03278276448812519 
-0.0550199049460405 
-0.03278276448812519 
-0.03454979188753431 
-0.03278276448812519 
-0.06716017708882387 
-0.06640363046804264 
-0.006709961543807022 
-0.04425408081664776 
0.2291787781462419 
-0.4399076951055241 
-0.06350933691736822 
-0.00635298283956954 
-0.03278276448812519 
-0.24743891695443 
-0.1591814599555098 
0.3094570766984128 
0.002055428288754894 
0.01894157481206731 
0.09637052871779747 
-0.03278276448812519 
-0.03119739857225664 
-0.07926812296902365 
-0.143251558906041 
-0.2229076089509986 
-0.0742339745469556 
0.09149823802188582 
-0.5858843321412609 
-0.06445214753013653 
0.01924175136830624 
-0.004369150866805338 
0.2171436264401149 
-0.7324693860521559 
-0.001510392316724241 
0.08396807745437425 
0.03754316305550388 
-0.06493454254961228 
0.3955761766363635 
-0.03278276448812519 
-0.06550758157124398 
0.3151090739544773 
-0.03278276448812519 
-0.03278276448812526 
0.1998918888669233 
-0.07059348120130386 
0.2073246016130368 
-0.1857695090161247 
-0.04043508654454448 
-0.1932077481729208 
-0.03278276448812519 
0.1541781799536249 
-0.06556552897625038 
-0.07583634805028798 
-0.01702818108769513 
-0.2417283360643948 
0.0008812072053251091 
0.09305137003458593 
-0.03950560527356681 
0.1098727862288747 
-0.03278276448812519 
0.4254835171806221 
-0.03278276448812519 
-0.03278276448812519 
-0.0609382740015538 
-0.2029808742274636 
-0.3929405178063026 
0.009974825439708788 
-0.7931421284282048 
-0.1882079483777264 
0 
-0.4938553771448403 
0.3589413903618111 
-0.07991254337000309 
-0.1052445458444609 
-0.07963451827744533 
0.2496732505862701 
0 
-0.02074752306601785 
-0.8636000130436995 
-0.1170427877553231 
-0.01010052153987619 
0.4255209563039266 
-0.088425629056527 
0 
-0.05405024601796685 
-0.02040899122504639 
-0.1179921956258551 
0.2845680438130994 
-0.01950996836972674 
0 
0 
-0.1217068783654662 
-0.0001559245177187934 
-0.05953454135525468 
-0.07579473961702467 
0 
0.4730803573748074 
-0.08100762483492807 
0 
-1.908195823574488e-17 
0 
-0.9383729729284822 
-0.09753608377386466 
0.080725494448336 
0 
0 
-0.001350593184402874 
0.09692451846908719 
0.007374922441065563 
-0.1613645901014747 
0.1780832066559575 
0.01222647601408742 
-0.07222058516296395 
0.07196569850247099 
-0.08590636610486875 
-0.266535792754085 
-0.2515475802181169 
0.05168752149940271 
-0.001731544984741734 
0 
-0.2278773200636629 
-0.0338858439011899 
-0.1080652200337701 
0.3008339076104586 
0.01392045517612542 
-0.06821494985498755 
0.2720546752960433 
-0.01965636210427195 
-0.242646743407076 
-0.09900125718812462 
-0.1661664911190456 
-0.5461635438337729 
0 
0.3219601542177807 
-0.003328285566229994 
-0.05943757498316578 
0 
-0.08216348113492643 
0.4465348516564203 
-0.5214293119172324 
-0.009461603468363711 
-0.2453961729270886 
-0.1381112667069938 
-0.03743394329569428 
-0.03155108974931908 
0.03420802778865081 
-0.02230536512729943 
0.2101688010190214 
0.1700351934826827 
0.1474447949677926 
0.405542810621562 
0.04753764345606874 
0 
-0.04644246083357098 
0.1231470418139395 
-0.04476047520151205 
-0.006752384552876455 
0.1512011476893623 
-0.005630122136689832 
-0.06379815739991748 
0 
0 
-0.4684552675296071 
-0.01673632297833067 
0 
0 
0.07460129454113931 
-0.3036326731761128 
0.3856880818792898 
0 
-0.08346424877558535 
0 
0 
0 
-0.1225866540574982 
-0.01259084944309142 
0.3690935201812305 
-0.1432053344903139 
0.2493379024930048 
0.1941845105097559 
-0.7528223892020359 
0 
-0.1290000363341692 
0.2838244967140265 
0.160264541404886 
0 
0 
0 
-0.02061011705815199 
0.06823143381698543 
-0.1194774905535684 
-0.01344568157088305 
-0.154597593324943 
-0.02482519350867083 
0.009296376537109543 
-0.1300529507341997 
0.4523334437733114 
0 
-6.938893903907228e-18 
-0.06888236804379361 
8.673617379884035e-19 
0 
-0.02083789101270669 
0.02833499733653775 
-0.005543003130802586 
0 
0 
-0.00301561906505811 
0 
-0.01691029610055699 
-0.1010041279158077 
-0.2741661223342686 
-0.008436686212320936 
0.1719679253545496 
0.03072195203026961 
0.5686901410887315 
0.0985199432505218 
-0.03035922939530707 
0.1775398853766455 
-0.01355721506411281 
0 
0.2233113196021387 
-0.8491375790728812 
0 
-0.9589414395609289 
-0.004238285187721444 
0.07970309403601747 
0.4009525974960535 
0 
-0.0152423256411168 
-0.2080471584629845 
0 
0.4283610761953851 
-0.946179129367801 
0.2024031138114832 
0 
-0.09336755877751053 
0.01167470415966254 
-0.007204939663741718 
0.02126534804411392 
1.734723475976807e-18 
0.0006492512231581879 
0 
0 
0 
0.2645348071561514 
0 
0 
0.06227972201580308 
0 
0 
0 
0 
0.2084421536820002 
-0.0127787929284437 
-0.03082839304419612 
0.5461256536501202 
0.1769447298788615 
-0.1215429526464931 
0.3450535818973043 
0 
0 
-0.001017300093406094 
-0.01550536356293902 
-0.007398827293051145 
-0.006204501072637452 
0 
0 
0.2406793448861395 
0.06742892468397003 
0.03439370355762865 
0 
0 
-0.1160818443718677 
0 
0 
0 
0 
0 
-0.001252715798089622 
0.05651653674295459 
-0.01047681050705437 
0.09105016041867169 
0 
0 
-0.01737936806661961 
0 
0.03732635178263664 
0 
-0.04220656909334029 
0.07495930017609986 
0 
0.3292959314330826 
0.1579683752724399 
0.2779682198524508 
0.07936029752345482 
0.1789255909109935 
0.06948012382935659 
0 
-0.1155303291519563 
0 
-0.1553688531264368 
-0.02920239204212821 
-0.05005988184266837 
0.3309973452323947 
0.07762253166005742 
0.002521758541214673 
0 
0.03868205874109866 
-0.1645330860717538 
0 
-0.0322800975072891 
0 
0 
0 
0.1846058683741358 
0.1884325638583515 
0.008664976551378125 
0 
0.2354023097353932 
-0.01608803363491984 
-0.02573168167453227 
0 
0 
0 
0 
-0.110628314306619 
0 
0 
0.6764636521979316 
0.003363255998458336 
0 
0.1089224296716114 
0.3807299794911141 
0 
0 
0.2113459294198281 
0 
0 
0.2116796768111524 
0 
0 
0 
-0.5158379058135891 
-0.1762608684581409 
-0.1271476553396619 
0 
0 
-0.1701785290102673 
-2.710505431213761e-19 
0 
0 
0 
-0.04549071287933028 
0.2284971888624074 
-0.02099513212990326 
0.006098803664511755 
-0.01021334404180202 
0 
0 
-0.02569441349272387 
-0.1559245452919238 
0 
0 
0.3402248123212292 
0 
-0.02006894103105419 
-0.1085737870342642 
0 
-1.301042606982605e-18 
-0.1377701780864887 
0.07031450639988945 
-0.09555121756997143 
-0.1524206887368732 
0 
0 
0 
0.181341829738967 
0 
0.3772724523464974 
0.2151574960674794 
0 
0 
-0.04132594182924817 
1.01643953670516e-18 
0 
0.1147404000032351 
0 
-0.01192034773126868 
-0.001987034178548646 
0 
-0.03303996665385983 
0 
0 
0.3071716999102404 
0 
0.009403736174720428 
0.05222389891098034 
0 
0.1324279833391267 
-0.03927799814339929 
0 
4.336808689942018e-19 
0 
0 
0.01903152689210584 
0 
0.01080490643021988 
0.1131924172350598 
0.4112589371140656 
0 
0.04760615628888542 
0 
0 
0.2521622690541387 
0.6035409880972571 
0 
0.4434753103460466 
0 
0 
0.03902476902118347 
0 
-0.002119142593860725 
-0.5772397938299151 
0 
0.03489648797503599 
-8.131516293641283e-20 
0 
0.08211953903573017 
0 
-0.04186605368307914 
-0.006539330966905723 
-1.734723475976807e-18 
-0.004050675364298803 
0 
0.3002665534152364 
0.07106393113678346 
0 
0 
0 
0 
0 
0 
0 
-0.8281439596581889 
-0.5376163493878515 
0.1363888547186153 
-3.035766082959412e-18 
0 
0 
0 
0 
0 
0 
0.3928298342082908 
-0.1139973224774369 
0.07649542877789536 
0 
0.2022461170821035 
0.414454938663908 
0.2192726275196304 
0.2276013679790194 
-0.0727024311087613 
-0.2859785022431278 
0.3141571802068457 
0 
0 
-0.1684833950253562 
0.09479983586911571 
-0.04834771179516932 
-0.06148715193568929 
-0.007245622245623088 
0.3249883762905351 
0 
0 
0 
0.0384255300986275 
-0.0152045199352153 
0 
0.006637021026925979 
-0.01320527359346436 
0.08579855761800112 
-0.1041935822041396 
0 
0 
0 
0.4513453119403967 
0.04548082976751551 
-0.001020828768368938 
0.01571182964425899 
0 
-1.456896669277397e-19 
-0.1269958117726995 
-7.047314121155779e-19 
0 
-0.5366225063509855 
0 
-0.007810228156573128 
-0.1962471151150393 
0 
0.4649098084970604 
-0.3324507422368654 
-0.01594358338047508 
-0.0241978574712641 
0.04912293577773787 
0.1310461138621863 
0.007916019137285606 
-0.05726387166489404 
0.03110361962300098 
0.04776703869798352 
0.2424069356073163 
0.05767126694744063 
-0.0007217099138549628 
0.3912574221133539 
-0.01700144797329953 
0 
-0.3601343533455339 
-0.2342343437709285 
0 
0 
0 
-0.03577198976040909 
0.06785604418383903 
-0.149729046910145 
-0.3884428308016439 
-0.03032155345359671 
-0.1440957308654088 
8.673617379884035e-19 
0 
0 
0 
0 
0 
0 
0 
0.3855244785318103 
0 
0 
-0.2527602596354847 
0 
-0.1900559861422684 
-4.472333961502706e-19 
-0.05070679634333391 
-0.08584451889214964 
-0.08680360639642114 
0 
-1.734723475976807e-18 
0.3077202211746786 
-0.2119636784278739 
-0.01128383399760874 
-0.109735078749721 
-0.2959192587955771 
-0.2253396260009421 
4.336808689942018e-19 
-4.856548106377256e-17 
0 
0.1582797923870361 
0.03865887679838071 
0.06332389343832404 
0.08783072814960545 
-0.4622448578979118 
0 
-0.05613170566101383 
-0.05823684827922406 
0.1169754327531304 
0 
-0.09208428145548278 
-2.168404344971009e-19 
-0.03692880919568054 
0.01594752737946053 
-0.1062413037228864 
-0.1282588565298361 
-0.06588254190347435 
-0.04656588010520249 
0 
-0.007835598032031375 
-0.01025423050793777 
-0.2233396745910818 
0 
-0.06547398452941328 
-0.04154040513698202 
0.04132590198061756 
1.387778780781446e-17 
-0.04155579244267585 
-0.009224094708964747 
0.07260430110809696 
-2.168404344971009e-19 
0 
0 
0 
0.1789187928484018 
2.081668171172169e-17 
-0.1288640202444705 
0.05705199571731297 
-0.0005590516543752673 
-0.003304242272112241 
0.04277530792459375 
-0.08785034700460144 
-0.1917212848445649 
-0.003545455469817842 
0.1891628395707889 
0.3448301300086892 
-0.3840830211133712 
-0.0152045199352153 
1.734723475976807e-18 
0.1475271240742492 
-0.1813489158520629 
-0.1358195439730212 
0.002693509948183083 
0.1759477149230421 
-0.2305438307690434 
0.3733383730552957 
-0.6322760298188111 
-0.1077836049031494 
0.08875120901348831 
-1.431288436464983 
0.1732031025319976 
0 
-5.421010862427522e-20 
0 
0 
-0.2803174228529003 
0 
0 
0 
-0.4885387422465375 
-0.1536328621462149 
0 
0 
3.469446951953614e-18 
-0.3763448090546576 
0.1132087085759392 
-0.1040224891242241 
0.2749149898320781 
0.1867993005059095 
-0.2207374097248092 
-0.6670682774704306 
0 
0.01699966368507781 
-0.4776994725957024 
-0.2205172638435874 
-0.01520451993521525 
-0.7953655200571702 
0.2541164385352679 
0 
0 
0 
0.1871936487454874 
-0.01184345636187105 
-8.549654586431003e-05 
0.146247488974889 
-0.002119142593860728 
-0.01677654832981604 
-0.09649219770677234 
0.5912435073178229 
-0.02684351217937332 
-0.08394693148158633 
-2.602085213965211e-18 
-0.08600652744343718 
-0.06354024583447443 
-0.1390341632397048 
0.0123875699939284 
-0.04029955313202845 
-0.04612770152959576 
0 
0 
-0.2345498539615011 
0.04848710954488786 
0.1591305561371809 
0 
-0.109507078957662 
0 
-0.04862226371774481 
0.5245172323908064 
0.2245262808880764 
0.1038363977899782 
-0.03585942380787929 
0 
-0.1825744628898194 
-0.05476747919588506 
-0.09670003635061274 
-0.007137651243375993 
0.3200774303189184 
0.07689410902968549 
0.2306807619321442 
-0.03312737209192731 
0.02804554434489471 
-0.03017785219713477 
-0.1177533053919051 
0.1079368640275472 
-0.02446511629669619 
0.04573383897307534 
0.1497516860866662 
-0.08152064215659545 
0 
-0.04970060299766919 
0.2741067060808976 
-0.02417202567314772 
-0.156322049736643 
0.2430885244545374 
0.001314357649021759 
-0.08363597890682445 
-0.1105969314634937 
0.1999697763410401 
-0.09489983871032794 
-0.4343185956974169 
0.1107517499066222 
0.1156770249965579 
-0.3597879647023563 
0.2519607489484998 
0.1013585160384005 
-0.00984300480482077 
0.06049748190941726 
0 
0.2043634107242458 
-0.05936075799146491 
-0.03315071328494554 
-0.01288742648832625 
0.3506132371484582 
-0.06258726678680869 
0 
-0.096120001507602 
-0.1037675359449159 
0.2056546893578254 
0.2202200903665473 
-0.170769010402892 
-0.03210545420307165 
0.1393694250167589 
0.001065548988449545 
-0.04591237769970821 
0 
0.4619539766476179 
-0.5235767148005972 
-0.02273351436721838 
-1.734723475976807e-17 
0.1655332681343018 
-0.01372239636560737 
-0.1230576838702102 
0.01972288770223852 
0.4300622990068194 
-0.0004305437511254459 
-0.03265126317229367 
0.3043285264578241 
-0.03345351962095958 
0.2942156576631798 
-0.02662497879067582 
-0.08160449268059018 
-0.02363450865159592 
-0.03985920325129942 
-0.04939053574064359 
-0.08953273585799193 
-0.3047981892840393 
0.09207096807086323 
-0.06838953527806378 
-0.1498034675300273 
-0.0005726724228530427 
0.2056472434812677 
-0.1356935728064995 
0.3292506785862434 
0.1165860764342703 
0 
0 
-0.05985405397302847 
0 
-0.157412080693535 
0.1662001679859464 
-0.004532662849164034 
0 
-0.05892860988167731 
0.111261249462533 
-0.09329864183800478 
0.2574412453118002 
-0.007576334573566045 
-0.003788167286783023 
-0.3027362372898352 
-0.01311933770436861 
-0.003788167286783023 
-0.0264354517904901 
0 
-0.1362691817812711 
-8.348356728138384e-18 
0.3742032677142874 
0.23626170275835 
0.03809187462640519 
0 
0.1951005379372611 
-0.02395796200552958 
0.102430938643135 
-0.05003116905672071 
0 
-0.2071435750771171 
-0.04046576351188287 
-0.3558749771562557 
0.01216882252477777 
-0.1640693224363787 
0.434680215487568 
0 
0.2999775675184786 
-0.01251296007146922 
0.1765256495618849 
0 
-0.09382186478221381 
0 
-0.132687753453582 
-7.453889935837843e-19 
-0.06399005542957162 
-0.0559100854037519 
-0.01652509882642397 
-0.2482221481234805 
0.07857134854135092 
0.08732795543523882 
-0.0003558042728223284 
0.07608292283028543 
0.06397507644375998 
-0.01623513119846541 
-0.15704496052811 
0 
0.4017745026730206 
-0.0605094621702684 
0.3077735876868071 
-0.009324768747340006 
-0.0036049435134839 
-0.02540410844850784 
0.5748885939140805 
0.5559273370820929 
0 
3.469446951953614e-18 
-0.4387784132022498 
0 
-3.469446951953614e-18 
0 
-0.004245292645810422 
0.1226103619546971 
-0.04371641969101336 
-0.08191618123719628 
0.1471621783256145 
-0.02621048524874105 
0.390936789664299 
0.1595493592332349 
0.3188292471979514 
-0.4375176820506506 
-0.04691952552288627 
0.3457051463620237 
-0.01823477735781263 
0 
0 
0.1696342333687914 
0.1952609009324663 
-0.2484894207662182 
-0.01108600626160516 
-0.1132773144416281 
0.02322660479781099 
0 
0 
4.336808689942018e-19 
0.1904226213727376 
-0.0236844607937308 
0.2605719071707428 
0.06148627241209119 
-0.1328856500623129 
-0.01683624844003997 
-0.03487380303273756 
-0.01754352933980564 
-0.04420720201558094 
0 
-0.07563188494750535 
0 
0.1343196533146749 
0.1588215409823218 
0.03974522933276738 
-0.004450740276005278 
0.04792170919067485 
-0.0002366460120288033 
0.01785255986771244 
1.734723475976807e-18 
0.2035977646074795 
0.280409290659843 
0.2455429369170471 
-0.02728900100872463 
0.05400638626549381 
-0.261539730271752 
-0.1232161487692877 
0.2087084647198851 
-0.01220288050532669 
-0.1008810384947646 
0 
0.06948012382935659 
0.1495617224937202 
-0.1791855192602683 
-0.05843714568897006 
0.1036696731372984 
-0.07452286523810658 
0.1562514359871702 
-0.09911493972854238 
0.3428273670442968 
-0.1507122139143261 
0.05798338857757432 
0.2899486798300812 
-0.001449007281418113 
-0.06775167825052689 
-0.009792587607308497 
-0.4553517389962211 
0.6432907078186675 
0.1759498558611677 
-0.08818326421439529 
-0.127627560974585 
0 
-0.1300635503598521 
-0.01231904909708204 
-0.001252715798089636 
-0.064660996379498 
0.2003900224500107 
0.5881376866704792 
0 
0.1401924198831556 
0.1703432551589369 
0.02009814818975785 
0.1461575835765173 
-0.1906004078356938 
0.02802828897748964 
-0.1555070943541488 
-0.137819057050942 
-0.3244315101065149 
0.004947156649912235 
0.03580157335398566 
0.3909704398193444 
-0.0617377221920026 
0.1308938345119879 
-0.02223714045791533 
-0.1944297420574162 
-0.01426484194813905 
0.3062070684935298 
-0.02196257227751962 
-0.08856656453705984 
-0.05572097115414734 
-0.002439768954610362 
0.4848197038449291 
-0.01646139181363904 
0.397413574537559 
-0.07445366415285218 
-0.1932613114905934 
-0.01466120362707754 
0 
0.01666803195530963 
-0.1885963359130689 
-0.1745909566564857 
0.05891424438520819 
0.391984694356498 
0.129431803817695 
-0.03020248590527276 
-0.01785538111875849 
0.6279582343214509 
-0.0934843538510003 
-0.01988173834043485 
-2.602085213965211e-18 
-0.1751999337678381 
-0.02742173729627203 
0.2463028847371749 
0.007326954450708709 
0 
0.1570696369960289 
-0.1115669904140117 
-0.1179367920941244 
-0.07825294599909818 
0.125373699106123 
0 
0.1576692567561002 
0.008959580427029806 
-0.4761674809504766 
-0.05598573838154993 
-0.08137400816538905 
0.3879560062879441 
-0.005630122136689835 
0 
-0.1833336991942028 
0.04473593824644665 
-0.0377984632594569 
0.1191874356738744 
-0.02148533807757611 
-0.2221211332642347 
-0.07746571238123451 
-0.034157488189184 
0.06016219127285369 
-5.204170427930421e-18 
-0.08261570006614523 
-0.01391453616863299 
-0.05355567156518085 
-0.09673407854223445 
0 
-0.03312004223610543 
-0.5271645847694516 
0 
-0.08295872663161 
-7.182839392716467e-19 
-0.02390787412612767 
0 
0.1167606919494278 
6.505213034913027e-19 
0.005464775112846954 
0 
0.405812573427379 
-0.004161251672700541 
0.01025995069786923 
-0.001324689452365766 
0.0226760557164713 
-0.008436686212320974 
-0.01686305558225209 
0.3554963168584308 
0.02717814576504346 
0.07841700798919359 
-0.1014093537176138 
0.0926094010207115 
-0.06051071794072178 
0.08976933886683626 
-0.0008835136997045689 
-0.04910153685858806 
-0.03031142639717763 
-0.03031542037779038 
-0.1275528397413696 
-0.2304280500071616 
0.06727577233272231 
-0.04915505514991413 
0 
-0.003669119458816116 
-2.168404344971009e-19 
-0.1404341893715901 
-0.01092123547696743 
-0.1351881140969171 
-0.1459381114522473 
-0.2257681001910142 
-0.05357331185433443 
-0.0122653708215892 
0.3619850786282259 
0.1946198935574149 
-0.1185419797674761 
0.001656471800652257 
-0.01188228742951656 
0.01950361184966974 
0.1397769559872948 
-0.03136996990691304 
-0.4117491580738245 
0.0678975690991169 
-0.06048965914401103 
-0.008668445570705422 
0.1170100601026066 
0.3081639145735306 
0 
0.1543693871773424 
-0.1763884064404647 
0.2922521638391352 
-0.07364921002596009 
-8.131516293641283e-20 
-0.0489905561703496 
0.1036831748334937 
-0.07603241805431697 
0 
-0.1870016034146391 
0.05503415868406663 
-0.005543003130802584 
0.09060699825343517 
0.06743479208772128 
0.0536894958335576 
-0.007792842592757854 
0 
0 
0 
-0.141907304389156 
0.02760248419890519 
0.1091948505968315 
0.2051070494615758 
-0.0826006534192972 
-0.2189859370147177 
0.1625683889776451 
-0.01050837684318485 
-0.02920925316047359 
0.07535064874663694 
0 
0 
-0.05786766771073427 
0 
0 
0.06857104408536478 
0 
0.05194745154024054 
-0.1533027917223256 
0.005595328299283119 
0.002630787279293289 
0.1231372225267051 
0.2091865437878439 
-0.002134600245031992 
-0.07772328481632527 
-0.1718518518083426 
-0.001118103308750545 
0.0761172682737546 
0.2087572837533689 
1.734723475976807e-18 
-0.09676937559812775 
-0.08369028531640148 
-0.2479644834062619 
-0.2665362562725734 
0.0004083982641240789 
0.02497239939402045 
-0.06564291065077474 
0.02524588242716617 
1.084202172485504e-19 
-0.1175179003700839 
-0.04140412335494963 
0 
-0.02203662561782236 
0.1940353362362606 
-0.05577470023607971 
-8.673617379884035e-19 
-0.02369749079727593 
-0.06015294445962996 
0 
0.09406936647468184 
-0.004769404982379532 
0 
0.4552751207764361 
-0.04295836779470302 
-1.01643953670516e-20 
0.1215245058909569 
0 
0 
0.3758064793161299 
-0.03398680668136761 
-0.08081690769273264 
-0.07331839055415104 
0 
0.1766628301861632 
0.2601879538211689 
0.1223779363109307 
-0.2335440471466654 
0.1506185601901581 
-0.4741247297168077 
-0.129833067494316 
-0.04097584764443668 
0 
0.226654293309217 
0 
0.2092752439108561 
0.0108016392088218 
-0.08125549197875301 
-0.0009569794196555999 
-0.05233796991322834 
-0.1333949070505375 
-0.06228504450310004 
-0.07355373977770674 
0.2313437337795592 
0 
-4.472333961502706e-19 
-0.03276436272603065 
0.3651881346696823 
0.07778116538941926 
0.3394067129961149 
0.3327808325664365 
0.1314656393815999 
-0.08946746414530428 
-0.08499475668867056 
-0.5334074140819397 
-0.3630182420552224 
0 
-0.112552967318516 
-0.01474824548521464 
-0.02192736072065678 
0 
-0.1290126248670855 
0 
-0.05008321289214091 
0.06398329280981463 
0.003206378055208788 
-6.245004513516506e-17 
0 
-6.245004513516506e-17 
0 
-0.0007743235299380061 
0.2070732031805613 
0.1705321568146589 
-0.005630122136689828 
-0.3555987239411703 
-2.168404344971009e-19 
0.4015128791388324 
-0.2941081445192195 
-2.168404344971009e-19 
-0.001034558534772352 
0.02889230285183936 
-0.2792922409082325 
-0.06932134960547427 
0.06717994767388694 
-0.0135016889334476 
-0.0570892278875368 
0 
-0.01134166719949007 
0 
-0.02166866704034563 
0.02068736878770804 
0.04241383947880913 
0.5646545182080936 
-0.003873923739530548 
0.02541906194208389 
0.1245187378766044 
-0.3219604857791279 
0.0808202129425523 
0.2476946888858194 
-0.03304511898489775 
-0.5407647414974339 
0 
0 
0.1867992354664566 
0.003780981625805441 
-0.001324689452365764 
-1.01643953670516e-19 
-0.05023164602326562 
-0.03314551901092796 
-0.2160616566326571 
0.0548100431718766 
0 
0 
-0.06223927690311152 
-0.1228419879250032 
-0.3574479053294087 
0.4212579799196006 
0.006381809959436321 
0.3088777673925642 
-0.003545455469817862 
-0.03849136774357216 
0 
-0.1248564275863321 
0.07962350246207225 
-0.3050784055812371 
-0.09967444773566764 
-0.2103298013545017 
0 
0.1708333380091299 
-0.02330465744429085 
0 
-0.09894549001597129 
0.1107506453090584 
-0.03327594839973758 
-0.00171683627098275 
0.4126145569572521 
0 
0 
-0.06186767908213185 
0.01955302674338427 
0 
0 
0 
0 
0 
-0.2478074151871782 
0 
-0.02784776103853367 
0 
-0.01642218995415064 
0.2905977299962027 
-1.302736672877114e-18 
-0.01321772589524505 
-0.09137587316192107 
0.3636293780749469 
0.5738210191634779 
0.04366257865972088 
-0.0006623447261828816 
0.08950824796087403 
-0.01722951831995794 
-0.04362676576567581 
0.2536294344245568 
0.1608745440960397 
0 
-0.0003558042728223372 
0 
0 
-0.01459352785486951 
-0.08879754778836903 
-0.00707268749076969 
-0.009598544942617779 
-0.007764722381721831 
0.02470323849122862 
0.08207679700152128 
5.421010862427522e-20 
0.06450261446510654 
0.001933978412142419 
-0.007707868351429249 
-0.05525155794547053 
-0.2080251960180318 
-0.0212788979144791 
-0.06987919193767538 
-0.1061421122724166 
0.002973217038437789 
0 
0.01239027057442285 
-0.12253806766017 
-0.148507780004306 
0 
0.07429295351361576 
-0.03494090028635898 
0.2759469320211189 
0.4284718841481253 
0 
0 
-0.01862902254234522 
-0.1416358507693044 
-0.1397149872679572 
-0.1182481829560922 
-0.006907268849241455 
0.02753326219738344 
-0.02417467997042671 
0.1938653707719636 
-0.01990797296003541 
0 
0 
0.007068724968785443 
0.01276390018915195 
0 
-0.09453204012699594 
0 
0.3841674686981065 
-0.003914685522088303 
-0.03946509644126432 
-0.1928868085226313 
0.3620762388881429 
-0.3512351092815771 
-0.09725194550680286 
-0.02088538044375864 
0.02645223740387732 
1.626303258728257e-19 
0 
0.2314105079653558 
-0.0455459764476601 
0 
-0.002561432290807927 
-0.2412573213549198 
0.01167948718733334 
-0.0362748735454638 
-0.003418481322644159 
0 
0 
-0.01827738710887186 
0.6437346897547268 
0.3323488912695321 
0.09494993632771033 
-0.03786947982996505 
0 
-0.0005590516543752673 
-0.1067609380212349 
0.004590245688774795 
0 
-0.1410150220800277 
-0.003387507683139511 
0 
0.03663330946836361 
-0.01805282288620431 
0.1665952708025534 
-0.1296103794495961 
1.355252715606881e-19 
0.2106447295460518 
0.02689079675423688 
-0.02353776618573371 
0.006586281753223139 
0 
-0.005845394012252545 
-0.002537153205358216 
0 
0.004279229523469472 
1.084202172485504e-19 
0.05106172745221138 
0.001026314261493285 
-0.1499386547154069 
-0.007464495067453902 
-0.2843627604556945 
-0.1069248974842973 
0.4862026612825466 
-0.4011595402164233 
-0.05998792934628464 
0.136806038291442 
-0.01046655191578287 
0 
-0.06198687091707403 
7.632783294297951e-17 
-0.2397452151292847 
0.05091041577045206 
-1.301042606982605e-17 
-1.301042606982605e-17 
-1.301042606982605e-17 
-0.1805805452770608 
-0.203836690985032 
-1.135994586150054 
4.9439619065339e-17 
0.1074891557612366 
-0.661883255349051 
-0.2118949182991533 
-0.5491445446429322 
-0.3299946368368351 
-0.4434824356955285 
-0.2340052014712852 
0 
0.3406216001586819 
-0.3566970137098591 
0.1203966038746477 
-2.255479331948751e-17 
0.3564444876658168 
0 
-0.05246217149767905 
0.4633184628237053 
-0.1213201891671602 
-0.06145593523953627 
-0.09501725182043469 
0 
-0.04590678305040196 
-0.2450334851850056 
-0.5820390496413685 
-0.1668150009071955 
-0.1367819680097382 
-2.923357768273591 
-0.07042089500805049 
0 
0.2288356325028074 
-0.05094697296729707 
-0.03067487624812016 
-0.004694220167671391 
-0.007148071395492308 
0.02916246534143181 
0 
-0.05606881907856372 
0.02135840976520901 
0 
0 
0 
-0.01889664111776397 
0.01217866922426842 
0 
-0.1625963340296795 
-0.03034145651244488 
-0.246949634803964 
-0.08501388947265109 
-0.3430961818913101 
-0.008377498751756104 
-3.469446951953614e-18 
-0.4513157832472325 
-0.3023534913005022 
0.003560511458159574 
-1.040834085586084e-17 
0.05012634551940619 
-1.040834085586084e-17 
-0.1065201821121706 
0.1022108956144851 
-3.469446951953614e-18 
-0.002871092145030431 
0.2886144012496503 
-0.1374827679765808 
-3.469446951953614e-18 
-0.03040903987043061 
-1.040834085586084e-17 
0.3857101339467845 
0 
0.1643427184313616 
-0.2688228818486073 
0.2545855122407765 
-0.07945594482699486 
-0.03590601167318995 
0.1286407457094358 
0.06548991463758828 
6.938893903907228e-18 
-0.3565288700453786 
0.03499170606058448 
0 
-0.04419608073664628 
-0.09538696435112093 
0 
-0.2527979382616091 
0.4337992887173927 
-0.05112145558917709 
-0.02784428378557022 
-0.0006141272489271549 
-0.2114472019538715 
-0.151737105278089 
-0.01612520580063035 
-0.2619791081841832 
0 
-3.876022766635678e-18 
-0.1445507484052062 
-0.3507204883421917 
0.1478690986288615 
-0.1454049412578959 
0.05073939789225131 
-0.05020896893499201 
-3.686287386450715e-18 
0 
-0.06417912351388898 
-0.028835258093977 
0.5386914309272806 
0.2086286200476366 
0.3383715236229072 
-6.938893903907228e-18 
0.29840138728004 
0.313322726987262 
-0.1528359567578688 
0 
-0.04892092142886454 
0 
0.1334626960509039 
-0.04610640338070682 
-0.2132252711609258 
-0.01905698074776564 
0 
0 
-0.0003779442028333102 
-0.08290455237883476 
-0.1908134484306535 
0.2051221247875391 
0 
-0.1715256354904836 
0.4374131922975953 
0.1224615829958796 
-0.01804363004794942 
0 
-0.0294653760017493 
0 
-0.004978572262129664 
-0.2754740393495866 
0.01014692794434129 
0.02785785926298434 
0 
0.4225150176976339 
0 
-0.01594459648451836 
0.1928793464112183 
0.1198152722617298 
-0.06619472658320125 
0 
0.05310517384652505 
-0.5167356878452879 
0 
-0.1869320255817656 
0.03979177614612957 
-0.006984543288121214 
0 
-0.01306177185592962 
0 
0 
0 
0 
0 
0.3124149889302407 
0.052634054131962 
0 
0 
-0.00446933195230168 
-0.02115204393721415 
-0.002318734994723796 
0.1117655982013616 
-0.02442902389387486 
0.1739614705250054 
0 
0 
0.1916642356480208 
0.4904956600770159 
-0.02596674287071425 
0.5525082598095865 
0 
0 
0 
0 
0 
0 
8.131516293641283e-19 
0 
0 
0 
0 
0 
0.6865069339682222 
0 
0.07923355154390606 
0 
0 
0 
-0.088252493807219 
0.1194292440489219 
0 
0 
0 
0.07533954412050724 
0 
0 
0 
0 
0.07230487569804957 
4.973777466277252e-18 
0 
0 
0.4493584729766293 
0 
-0.2984988498001985 
0 
0 
0 
-0.01543540614459277 
-0.07056639260695537 
0 
0 
0 
0 
-0.06838237008389646 
0.01972288770223853 
0 
0 
0.02546732523657246 
0 
0.1225251055305226 
0 
0 
0 
0 
0 
0.04785620411927564 
0 
0 
0 
0 
0 
0 
-0.04561355980564594 
0 
0 
0 
0 
0 
-0.0983541189423861 
-0.007219830318410926 
0.2702353669471536 
0 
0 
0 
0 
0 
0 
0 
0 
0 
0 
0 
0 
-0.01306177185592961 
0 
0 
0 
0 
0 
0 
0 
0 
0 
0 
0 
0 
0 
0 
0 
-0.003909973137380765 
0 
0 
0 
0 
0.7940378447766528 
0 
0 
-0.008995737866696246 
0 
0 
0 
0 
0 
0 
0 
-0.2158699558703738 
0 
0 
0 
0 
0 
1.558540622947913e-19 
0 
0 
0.007607357138079599 
0 
0 
0 
0 
0 
0 
0 
0 
8.673617379884035e-18 
0 
0 
0 
0 
0 
-5.55653613398821e-19 
0 
0 
-0.02513108835924248 
0 
0 
0 
0 
0 
0 
0 
0 
-0.07427489733158466 
0 
0 
0 
0 
0 
0 
0 
0 
-0.03587315572464426 
0 
-0.001594648112573431 
0 
0 
0 
0 
0 
4.336808689942018e-19 
0 
0 
0 
0 
0 
0 
0 
0 
0.03324455598461261 
0 
0 
0 
0 
0 
-0.01021334404180202 
0 
0 
-0.02566970417689573 
0 
0 
0 
0 
-0.007707868351429249 
-0.007707868351429249 
0 
0 
-0.003788167286783023 
0 
0 
0 
0 
0 
0 
0 
0 
0 
0 
0 
-0.0006497797708823414 
-0.0006497797708823414 
0 
0 
-0.00554300313080258 
0 
0 
0 
0 
0 
0 
0 
0 
0 
0 
0 
0 
0 
-0.01378058243183295 
0 
0 
0 
0 
0 
0 
0 
0 
0 
0 
0 
0 
0 
0 
0 
0 
0 
0 
-2.168404344971009e-19 
0 
0 
0 
0 
0 
0 
-1.843143693225358e-18 
0 
-2.710505431213761e-20 
0 
0 
0 
0 
0 
0 
0 
0 
0 
-0.01464586862817397 
0 
0 
0 
0 
0 
0 
0 
0 
0 
0 
-0.009088458600620445 
0 
0 
0 
0 
0 
0 
0 
0 
0 
0 
-0.0006497797708823414 
0 
0 
0 
2.710505431213761e-20 
0 
0.5413285686330424 
0 
0 
0 
0 
0 
1.734723475976807e-18 
0 
0 
0 
0 
0 
-1.084202172485504e-19 
0 
-0.0152045199352153 
0 
0 
0 
0 
0 
0 
0 
0 
0 
0 
0 
0 
0 
0 
0 
0 
0 
0 
0 
4.011548038196366e-18 
0 
0.01685769486011412 
0 
0 
0 
0 
0 
0 
0 
0.1479190662111424 
0 
0 
-0.004469331952301662 
0 
0 
0 
0 
0 
0 
-0.004451842169056633 
0 
0 
0 
0 
0 
0 
-0.007342715186177537 
0 
0 
0 
0 
0 
0 
0.01084069207983105 
0 
0 
-5.421010862427522e-20 
0 
0 
0 
0 
-2.168404344971009e-19 
0 
1.084202172485504e-19 
0 
0 
0 
0 
0 
0 
0 
0 
0 
0 
0 
0 
0 
0 
0 
0 
0 
0 
0 
0 
0 
0 
0 
0 
0 
0 
0 
0 
-0.004532662849164034 
-0.001252715798089628 
0 
0 
0 
0 
0 
0 
0 
-0.0152045199352153 
0 
0 
0 
0 
0 
0 
0 
1.084202172485504e-19 
0 
0 
0 
0 
0 
0 
-1.084202172485504e-18 
0 
-1.355252715606881e-19 
0 
0 
0 
0 
0 
-0.01321772589524505 
-0.1586127107429404 
0 
-0.01645723573330493 
0 
0 
0 
0 
-0.002537153205358211 
-0.03742635454859303 
-0.07340957621291212 
-0.7530456043983051 
0.3028892095660769 
-0.1240418599656218 
-0.04322391140350845 
0.0507994848402661 
-0.01562417191611004 
0.2095690325178367 
-0.05955623344273984 
0.05099604849925638 
0.1433105559626852 
-0.193969611537519 
0 
-0.03965317768573511 
-0.003604943513483904 
0.09118970685911791 
-0.03815035835871447 
-2.358139725155972e-18 
0 
-0.418355787941236 
0.1573807849136977 
0.01221412957606868 
0.06325276005071927 
-0.03139275376668613 
-0.02364120614753628 
-0.05305820037662445 
0.1134736881627757 
0 
0.03409159922576831 
-0.01067300122516003 
-0.07108903007387898 
0 
-0.02471402707262465 
-0.00360494351348391 
0 
0 
0.0607599167251586 
2.168404344971009e-19 
-1.084202172485504e-19 
0.09546341531332278 
-0.03645087758062054 
-0.2749177823462484 
-0.2321388764437275 
-0.004450740276005279 
0 
0.07904370446545765 
-0.00102082876836894 
0.244067808897575 
0 
-0.004366747443306552 
-0.003699413646525573 
1.084202172485504e-19 
0.06043681558834108 
0.004145589870409132 
0.005581865069275108 
0 
-0.1142934061357136 
0.04938549088299259 
0 
0 
-0.03034145651244488 
0.1829952942694839 
-0.02982996415478413 
0 
0 
0 
0 
-0.01446651033925196 
-0.03310332477920571 
3.469446951953614e-18 
-0.2505500586471032 
3.469446951953614e-18 
0 
0 
0 
0 
6.938893903907228e-18 
0 
0 
0 
0 
0 
0 
0 
0 
0 
-0.04495061301574456 
-0.4237199165436563 
0.8404741295054959 
0.001400556591083097 
0.02482607377709158 
0.9490444986876297 
-0.03946004732827001 
0.08154921202175219 
-0.2021346330544404 
0.5811133397295473 
-0.5137977687634926 
-0.1002656815984712 
0.3104260534936261 
0 
0.221381054192294 
-0.1018138387677654 
-0.05909532444348042 
0.006659869129035517 
-0.0716114955510895 
-0.2741644768457362 
0.004718636724264281 
0.04075815462296342 
8.131516293641283e-19 
0.3677095937190447 
0 
-0.08176531879213091 
0 
0.2529344247943769 
0 
-0.164390943375532 
0.2399818983766583 
0 
-8.673617379884035e-18 
0.0289908145202414 
-0.02223714045791532 
-0.2657152437104069 
0.2717811654533369 
0.04442189669189926 
0 
-7.752045533271357e-18 
-0.03842959507663188 
0.3965669795665302 
5.502326025363935e-18 
0.07688061850652643 
0.2878753097539447 
-0.1635885854046515 
0.4622891745561266 
0.07709381434485452 
-0.06707859164343982 
0.04940271868480017 
0.1080339371224096 
0.03232795571818643 
0.1952424893771001 
0.122641190287183 
0.03388051636015108 
-0.03410140800309255 
0.3815378074520862 
-0.02510448446749599 
1.115372984944463e-17 
0.01306710128191853 
0.3273494691274908 
-0.09599118984487866 
0.1364473037061305 
0.1133189092886786 
0.01167061699811117 
0.1813277935721292 
-5.55653613398821e-19 
0.0505806835616175 
-0.04484005101967643 
-0.01138723571988195 
-0.06011505641785041 
-0.05908856636025239 
-4.025100565352435e-18 
-0.1105387414970014 
-0.05493851586244673 
0.1477512935928058 
-0.01380451812843002 
0.265590564624574 
-5.55653613398821e-19 
-2.425902360936316e-18 
-5.55653613398821e-19 
-2.290377089375628e-18 
-0.0002152718755627238 
-0.04897739784589621 
-0.0002152718755627203 
-5.55653613398821e-19 
-0.0008610875022508933 
-0.000215271875562726 
-0.04700847745289873 
0.162397322699882 
-0.0003050296238968566 
-0.02471402707262467 
-0.04391777175272776 
-5.55653613398821e-19 
-1.355252715606881e-20 
3.767602549387128e-18 
1.179069862577986e-18 
-5.55653613398821e-19 
-0.02263733483789475 
-0.01970789106197133 
-0.04000764604641599 
-0.2166120992842146 
-0.09184048013147177 
-0.0002152718755627272 
-0.1182421222857067 
-0.001252715798089626 
0.4236359597632656 
-0.156752686331062 
-5.55653613398821e-19 
-4.445228907190568e-18 
-0.1555109820824461 
0.1272494455073836 
1.179069862577986e-18 
-0.2783341061456291 
-0.07561010777731045 
-0.06615996562093862 
-0.2147494908215608 
-0.0375140900437711 
-0.0002152718755627307 
-0.03578650948672466 
0.1226677718480142 
-0.5381941420805325 
-5.55653613398821e-19 
-0.0004305437511254477 
0.06224917251293716 
-0.03257544422136048 
0.1785551465960893 
0.05241445295937208 
-0.2139531281422657 
0.1296291154090844 
0.02715040945911249 
0.1841805371151423 
-0.07462617245716399 
-0.3221331203047939 
-5.55653613398821e-19 
-0.04571904986200957 
-0.1827886679858982 
-0.003604943513483905 
0.03958642864116757 
0.01003375856742876 
0.02407613685619046 
0.03536255540388566 
-0.005543003130802578 
3.455894424797545e-18 
-0.1483488635610255 
-4.580754178751256e-18 
-0.009683795381639279 
-0.2235675921952752 
0.02090847587185421 
0.218191026240926 
-0.1785618302927577 
-0.1216450610973813 
-0.01153953771573576 
0.3073434891687299 
-0.1047878124120228 
0.004050582828981178 
-0.1350598627824961 
-5.55653613398821e-19 
-0.05526053136482144 
-0.02802083088431163 
0.2183531420575793 
0.08232520486087425 
-1.172293598999952e-17 
-0.05474128358920713 
0.09465759412737842 
1.368805242762949e-18 
-0.02840531080919389 
0.1679255965607883 
0.03424934243783717 
-0.02907743679575187 
-0.002537153205358216 
-0.02477429366327354 
-0.002537153205358209 
-5.55653613398821e-19 
8.673617379884035e-19 
-0.1008993742966656 
0.1296657025797246 
0 
0.05452207871076269 
-0.1120127016649142 
-0.08113946853358736 
-0.0560063508324571 
0.03721954205607209 
0 
0 
0.07275694619823672 
0.1140798166287339 
-0.003604943513483903 
0.2714366256505913 
-0.002622426397730607 
-0.03373320059847734 
0 
-0.13124083080911 
-0.006722840785441524 
-0.085981533425019 
-0.01985935613973176 
0.04115374373564046 
0 
-0.1824295217449806 
0 
-0.02063634448222069 
-0.008785010570220539 
-0.0513548464045808 
0.0005445980147447003 
0 
-0.01070275693773713 
0 
-0.4286266209290895 
0.0005445980147446999 
0.1331614673043948 
0 
0.2259966664514309 
-0.1007674941631437 
5.421010862427522e-20 
-0.01263982311299097 
-0.001758162999557661 
-0.1392768897894011 
-0.02491072668503259 
-0.3658339644676017 
0 
-0.0768835864657952 
-0.05563505740983331 
-0.0004039517533735331 
0.1288035647553082 
0.3237391982030666 
-0.06720455379309716 
0.01143655830963867 
0 
0 
0 
-0.1060394830122111 
0 
0.01525564670622518 
-0.1614838718044171 
0 
0 
0 
0 
-0.003590445385875774 
1.084202172485504e-19 
0 
-0.06012118066770444 
0.3930390942907243 
-0.1173509059544958 
-0.1324284802014929 
0.09772074877916066 
-0.02112195653811394 
-0.1813111550273024 
0 
0.01838382210192068 
-0.006913759838596312 
-0.1040546911832699 
0.09544208465422925 
-0.1528873678927821 
0.1495801412129508 
0 
-0.02740884075003731 
0.0284963255695136 
0.02060127189816873 
-2.602085213965211e-18 
-0.008668445570705422 
0.04973543456016417 
0 
-0.00287109214503036 
-0.06706549424081813 
-0.01056093927739995 
-0.04794402046905256 
0.2969073404069282 
0 
-0.2159021453806477 
-0.0270585563431371 
0.3012364469795069 
-0.01153725520749309 
0.1484230228196998 
0 
0.009032435536146457 
-0.2784391961035938 
-0.1662379601777895 
0 
0.07188200106928358 
0 
-0.1085322521814501 
-5.204170427930421e-18 
-0.1185147194264162 
0.2183892103969067 
0 
0 
-3.469446951953614e-18 
-3.469446951953614e-18 
-3.469446951953614e-18 
-0.005543003130802609 
-3.469446951953614e-18 
0.09917601547832566 
-0.03751465910614554 
-0.09784747715741271 
0.3432713332355227 
-3.469446951953614e-18 
-3.469446951953614e-18 
0.192042067372742 
-0.004161575884595773 
0 
-3.469446951953614e-18 
-0.03119177753351463 
-0.1182317058293958 
-0.04032364347052211 
0.2673670456266528 
-3.469446951953614e-18 
-0.005543003130802581 
-0.06252854278341188 
-0.007903916835023313 
-0.03898336811738304 
0.1764754022394994 
0.04452776998077593 
0.04985750384931005 
-0.01520451993521527 
-0.5454470445825059 
0.05101067510187552 
-0.1341744675234412 
-0.03978770464696696 
-0.04916636942350348 
-3.469446951953614e-18 
-3.469446951953614e-18 
-3.469446951953614e-18 
-0.2864842075731097 
-0.04533070777776971 
-0.01520451993521529 
-0.451158666892623 
-0.009378664776536373 
-0.004371892834827133 
-0.05378012362756494 
-0.1268550995356593 
-0.02471402707262465 
-0.02458318471175175 
-0.1329668037987121 
-6.505213034913027e-18 
-0.04873260600048156 
-0.03922200059121431 
1.572093150103981e-18 
0 
0 
0 
0 
0 
0 
0 
-0.0204089912250464 
0 
0 
0 
-0.003387593771211814 
-0.0666541506976685 
0.135930968553724 
-0.08882864747788492 
0.1436558354454804 
0.2962402721416765 
-0.261015549591317 
-0.1250100343378104 
-0.03867096268965271 
0 
0.1218411613361372 
0.1218411613361372 
-7.155734338404329e-17 
0 
-0.005956050401573223 
0 
1.734723475976807e-18 
0 
-0.01846273776563283 
-0.1443132068551287 
0.07901445171301685 
0 
0 
0.6672472102597 
-2.168404344971009e-19 
0.1435417733507611 
-0.3919289294049222 
0.1996723610167254 
0.02899082950788186 
-0.01321772589524505 
-0.0392436290469205 
-8.673617379884035e-19 
-0.1388574031634488 
-0.05259764624969281 
0.002119741750889181 
0.150411832097838 
0.150411832097838 
-0.09063537280970517 
0.1310998584323591 
-0.05184733271840394 
0.2347105208224273 
0 
-0.08898077555667774 
0.01613026383212302 
-0.02040899122504639 
0.4914401150137916 
0.03955545738581073 
-0.03557250305064234 
